1302 10
0 1.69085e-13 0 8.70981e-46 9.92865e-131 0 0.0189133 0 0 2.73949e-39 0 
1 3.29625e-149 3.43753e-191 5.99463e-206 7.80443e-71 0 9.10565e-14 0.0049075 7.98768e-150 2.59355e-119 2.10855e-203 
2 0 0 0 1.24026e-220 0 2.92622e-283 2.59753e-245 0 4.65142e-280 0.00408256 
3 0 0 0 2.59598e-220 0 4.05656e-283 6.79552e-245 0 7.62817e-280 0.00408256 
4 1.88582e-230 1.62199e-37 0.00478973 5.2428e-155 1.80437e-16 2.2021e-256 1.40114e-237 4.13561e-302 2.82441e-128 9.76137e-28 
5 1.28146e-261 9.96738e-145 9.36897e-320 1.81635e-303 0 4.40224e-250 2.33796e-192 0 0.00750826 0 
6 1.50455e-42 1.69727e-21 0.00898963 7.20633e-29 6.90489e-242 2.02442e-83 4.6248e-22 7.9348e-14 4.67845e-52 2.01609e-165 
7 8.01777e-22 8.46589e-06 2.43159e-23 1.67197e-105 3.52377e-177 4.72744e-75 2.85961e-220 1.77234e-208 0.00877669 1.05182e-189 
8 0 5.47405e-185 0 3.98088e-244 0 0.00723207 5.20076e-168 0 1.38171e-29 0 
9 2.29738e-12 8.9184e-48 2.62597e-18 1.40363e-41 0.0503922 2.88776e-28 1.25903e-76 7.91059e-08 2.41514e-58 3.1359e-47 
10 2.25143e-262 1.81766e-313 0.00520302 0 0 0 5.04112e-238 0 1.97738e-127 0 
11 0 0 0 1.58441e-220 0 3.44547e-283 2.64167e-245 0 2.55495e-280 0.00408256 
12 3.77568e-33 4.05601e-177 6.85893e-68 2.24189e-149 1.51682e-307 0.00436763 4.02081e-156 3.22181e-187 8.13468e-102 1.71733e-239 
13 3.67118e-223 0 0.00264269 5.57185e-103 0 4.01619e-291 0.00137411 0 5.4511e-139 6.46454e-268 
14 1.4938e-174 5.60289e-255 3.27138e-205 6.2569e-110 0 3.18063e-190 0.0110194 0 9.40563e-143 6.22455e-190 
15 8.90263e-24 2.65246e-60 0.0904277 1.96562e-43 7.81769e-114 1.23456e-24 3.28185e-154 5.0559e-64 6.17829e-63 8.73027e-13 
16 5.40578e-235 2.60664e-104 5.14454e-05 1.2075e-33 1.2521e-09 1.3235e-140 3.36906e-18 0.000136451 3.97787e-156 0.00431257 
17 0 0 0.00346868 0 0 0 0 0 4.80981e-172 0 
18 2.22924e-15 9.45501e-14 1.75068e-122 0.0153024 9.05914e-35 1.14397e-11 1.11786e-13 1.81932e-47 9.13808e-23 3.27193e-37 
19 0 7.10013e-68 3.20507e-150 2.02463e-21 2.50846e-173 1.49371e-86 2.78833e-131 0 0.00603514 9.13899e-114 
20 1.24849e-19 1.04354e-136 6.81377e-19 0.00613152 3.66403e-226 7.20594e-89 4.02982e-104 5.17155e-173 1.64542e-114 0 
21 6.24531e-23 9.17109e-14 1.92649e-38 0.0221862 1.49942e-28 5.58799e-99 3.45243e-22 1.8703e-46 2.50155e-45 5.69667e-06 
22 4.65922e-132 1.49142e-182 9.90245e-260 5.28533e-93 0 0.0029234 1.01848e-144 0 1.33339e-86 0 
23 6.96382e-21 9.64804e-15 2.77512e-21 0.027452 2.14112e-57 2.41912e-15 1.48554e-06 5.03326e-48 1.58169e-15 1.31116e-38 
24 0 0.00603257 7.66342e-174 1.03217e-17 1.40927e-277 0 1.12774e-59 1.73975e-32 3.73514e-321 1.89309e-250 
25 2.92821e-159 0 0.00280709 8.2628e-12 6.26982e-230 1.05152e-73 1.72998e-89 1.35203e-163 8.91304e-138 1.25691e-07 
26 0 0 0 0 0 9.86401e-272 0 0 0.010011 0 
27 0 0 4.54479e-160 3.79466e-250 3.13664e-75 2.32766e-112 4.07295e-88 0.0035663 0 4.57293e-09 
28 0 0 0 0 0 1.35402e-271 0 0 0.010011 0 
29 0 3.89357e-101 0 0 5.05008e-292 0 0.00220389 2.04879e-316 0 7.49661e-133 
30 0 1.55368e-175 1.89227e-321 2.01123e-234 0 0.0029234 6.09691e-160 0 7.47538e-152 0 
31 3.65047e-06 2.81543e-20 4.32358e-37 0.000748285 1.74963e-55 2.20434e-17 0.0138836 2.15332e-54 1.67839e-12 5.23631e-159 
32 0 7.58995e-273 0 5.70077e-226 2.27171e-212 4.83763e-267 0.0154272 6.79879e-251 5.45497e-200 7.92732e-299 
33 7.06499e-274 1.5122e-246 2.99696e-08 1.6982e-87 1.02727e-306 2.42243e-179 1.96009e-10 0 0.01576 1.07513e-243 
34 0 9.35173e-176 2.14919e-321 1.10746e-234 0 0.0029234 1.67707e-159 0 4.03215e-151 0 
35 1.22857e-26 5.79384e-20 1.73591e-63 0.00962047 7.13552e-32 6.55007e-13 1.82116e-83 4.09672e-139 5.26288e-06 4.24778e-12 
36 1.85293e-242 2.00041e-194 0 0 0 0.0029234 3.35718e-320 0 0 0 
37 2.55226e-17 1.01292e-67 5.39787e-33 6.3184e-83 0.0615195 7.73442e-14 9.99485e-75 2.95974e-14 5.03419e-56 1.768e-44 
38 3.59282e-63 2.74141e-19 1.34242e-225 0.00481693 1.87622e-163 5.50857e-249 2.11458e-120 3.49103e-156 2.63965e-146 5.76008e-108 
39 6.67585e-231 0.00252973 1.32405e-171 2.40362e-94 0.000769139 2.51832e-159 9.46719e-61 1.67402e-146 4.42551e-164 2.40228e-66 
40 0.0059604 8.38452e-45 0.0259281 3.00576e-34 1.25551e-31 8.29425e-08 3.67015e-41 1.89341e-75 1.02274e-45 2.27866e-32 
41 3.33008e-47 7.05485e-24 5.59471e-65 0.0299937 1.33641e-110 1.46811e-17 3.26567e-09 3.09457e-122 1.41228e-10 8.43543e-23 
42 0 0.00336165 4.32489e-254 0 7.46772e-249 6.70551e-298 5.13168e-219 0 5.66925e-147 8.09509e-259 
43 1.01899e-105 1.03198e-129 0.0045499 6.72195e-93 0.000332635 6.50537e-201 3.10602e-22 1.51527e-266 1.03795e-114 0.00504108 
44 3.89375e-199 1.63219e-86 2.49098e-52 0.00126162 2.45298e-249 9.94079e-219 4.10638e-153 8.28952e-209 1.46897e-133 3.79339e-215 
45 3.48928e-99 0.0119738 1.68363e-143 3.32722e-83 6.02215e-19 1.27718e-99 1.7719e-22 1.35853e-252 6.82352e-145 0.0217145 
46 1.21478e-18 1.06335e-68 3.68077e-61 0.00957892 3.13344e-45 5.63272e-09 1.81695e-06 5.6447e-142 6.82052e-20 4.52595e-108 
47 4.84284e-235 2.13669e-266 1.03599e-202 0.00504667 3.98244e-277 1.15323e-101 5.73484e-154 3.76903e-227 2.10839e-241 0 
48 1.53179e-306 2.42268e-258 0 0 3.67294e-05 3.32037e-08 9.61795e-13 0 0.00644921 0 
49 0 2.74087e-105 4.24003e-76 5.05931e-249 7.17034e-241 5.95934e-231 0.00330583 5.458e-303 6.36e-175 6.86469e-135 
50 0 0 0.00346868 0 0 0 0 0 0 0 
51 0 0 5.92651e-239 4.40002e-184 4.19956e-322 1.00779e-248 4.65094e-194 1.34952e-127 9.04758e-119 0.0142889 
52 0.000713897 1.60374e-60 2.05196e-12 0.000105541 9.97633e-29 1.59456e-193 4.55536e-11 5.76638e-215 1.62082e-07 3.09817e-21 
53 0 6.8821e-233 0 1.53362e-180 3.22112e-250 2.54397e-223 8.9571e-224 0 0.00250275 2.59279e-252 
54 6.23963e-151 6.94621e-144 5.0319e-110 0.00525586 8.51021e-210 1.22196e-07 3.14032e-18 3.93372e-314 2.83948e-169 2.83469e-142 
55 6.77e-82 2.53645e-117 1.54405e-213 3.07912e-160 6.51317e-88 1.73107e-35 1.1516e-88 0.00407333 4.46842e-271 1.82539e-33 
56 2.91612e-51 3.67566e-27 1.32386e-73 4.38221e-06 1.26884e-23 2.94293e-31 0.000517757 3.69143e-159 0.00192624 3.1489e-101 
57 0 0 0 0 0.00157345 0 0 6.96426e-257 0 5.49205e-229 
58 4.18001e-69 1.14103e-111 4.19274e-66 0.0152161 3.81716e-156 2.4579e-115 1.89726e-134 3.2262e-132 4.38462e-07 2.55798e-56 
59 2.17452e-104 3.56052e-139 1.29247e-157 3.8281e-25 1.16647e-160 1.25548e-06 0.0111994 1.77147e-156 9.97761e-69 2.91555e-93 
60 1.13918e-231 2.90789e-226 9.22876e-221 0 0.00157345 2.4705e-159 0 0 1.28382e-165 1.3978e-66 
61 1.63558e-130 2.56086e-182 4.77042e-245 1.44142e-88 0 0.00209505 0.00137411 0 3.99478e-85 6.75487e-260 
62 4.67843e-82 3.28722e-20 2.51332e-26 0.0107285 4.58972e-52 5.0091e-22 0.000460805 7.77175e-140 4.74924e-13 2.24462e-37 
63 1.76274e-253 2.41761e-110 0.0261438 4.59939e-20 0 8.03562e-08 2.70313e-71 1.67304e-261 9.98658e-48 1.74565e-32 
64 4.82068e-65 1.02179e-21 3.22683e-228 0.00607967 2.26279e-166 3.50086e-200 2.89522e-122 1.09233e-158 5.6168e-149 2.57089e-106 
65 0 1.19892e-232 0 2.30895e-180 2.30917e-250 2.36194e-223 8.82622e-224 0 0.00250275 2.80695e-252 
66 1.36683e-167 0 0 0 0 0 0.00220389 0 0 3.7972e-191 
67 1.9322e-267 0 0.00520302 0 6.29766e-206 0 0 0 0 0 
68 0 1.63822e-154 1.47403e-225 0.0220767 6.58347e-241 5.98314e-68 8.27152e-53 1.22985e-132 2.38884e-116 2.00118e-292 
69 4.3379e-321 0 4.40707e-321 7.61401e-217 0 0 4.02947e-247 0 0.0050055 1.32303e-288 
70 0 7.93399e-233 0 1.27585e-180 2.12963e-250 1.66613e-223 5.91784e-224 0 0.00250275 2.64169e-252 
71 3.43645e-160 2.15633e-202 1.97014e-74 0.0018896 5.81409e-209 0 4.59407e-121 4.0849e-215 2.91485e-45 0 
72 4.1081e-246 0.00589249 8.47476e-155 1.31422e-08 0 0 9.45486e-59 1.52961e-254 4.2693e-34 2.28642e-155 
73 2.07994e-233 0 0 1.75243e-136 0 9.39835e-156 0.00330583 0 0 0 
74 3.08758e-18 7.68646e-22 2.22057e-82 0.0185859 5.31738e-54 1.42032e-29 9.32837e-07 2.17958e-140 6.3719e-12 3.02078e-42 
75 0 2.03638e-154 1.47429e-225 0.0199863 1.30025e-240 6.96594e-68 7.10933e-53 1.7804e-132 2.39191e-116 1.82494e-06 
76 4.47975e-63 2.37513e-19 1.46155e-225 0.00481693 2.63223e-163 3.86195e-249 2.65276e-120 3.94574e-156 2.24146e-146 8.53019e-108 
77 4.82308e-166 2.02844e-44 0 9.70199e-17 0 3.46933e-86 6.4901e-291 3.77576e-303 0.00959931 3.13552e-285 
78 0.00348242 3.54903e-211 7.49577e-116 0 1.63338e-306 1.06838e-86 1.81098e-217 1.30604e-235 3.50587e-191 0 
79 5.761e-157 2.32841e-306 2.74144e-162 1.62441e-73 5.83949e-77 5.7151e-11 0.00325667 4.60717e-09 8.17473e-117 6.89836e-13 
80 0 0 2.73825e-08 0 0 9.64739e-287 5.56123e-275 0.00279398 0 7.11063e-157 
81 1.38239e-95 0 7.1786e-167 7.49775e-186 7.67784e-11 6.47687e-124 5.35314e-100 1.44646e-15 5.50464e-285 0.00708367 
82 0 0 1.29141e-220 0 5.64162e-270 1.75416e-200 1.93124e-257 0 2.537e-132 0.00612383 
83 4.8211e-262 8.4966e-145 5.37988e-320 1.34315e-303 0 2.8022e-250 1.72815e-192 0 0.00750826 0 
84 0.00125869 2.08301e-228 2.87372e-202 6.51564e-06 3.0348e-201 2.00934e-184 2.10283e-12 1.76732e-268 0.0128836 6.32654e-191 
85 0 4.53214e-101 0 5.16588e-06 2.88652e-53 0.00502654 1.17138e-190 0 2.44714e-53 8.79338e-320 
86 2.83126e-69 0.000813833 1.04185e-160 3.17832e-15 1.55438e-186 8.60421e-266 0.0139003 7.14846e-41 1.39051e-46 1.50554e-116 
87 1.15301e-12 1.13898e-33 0.00314036 3.07968e-20 0.00182429 8.2331e-47 1.59309e-146 4.115e-190 5.30434e-71 2.05015e-150 
88 5.67316e-20 1.38613e-23 1.2766e-44 0.0152709 3.19423e-56 3.48465e-14 3.82593e-05 6.96625e-55 1.11104e-09 7.77584e-33 
89 2.05018e-158 5.83132e-140 0 6.70238e-65 4.71452e-162 0.00498225 1.33707e-08 9.67897e-157 2.28541e-102 1.16097e-98 
90 0 6.47221e-273 0 6.50511e-226 3.10575e-212 4.6595e-267 0.0154272 6.21816e-251 4.18072e-200 9.08229e-299 
91 4.09475e-244 0.00487505 1.18034e-148 9.2074e-05 1.12551e-278 0 1.01271e-49 2.20173e-33 2.21626e-34 4.96499e-154 
92 0 1.07151e-272 0 8.15231e-226 4.48855e-212 8.88496e-267 0.0154272 6.53702e-251 4.61757e-200 9.35575e-299 
93 0 0 6.21596e-08 0 0 3.87713e-286 2.44515e-274 0.00558795 0 4.5448e-157 
94 6.86183e-60 3.3448e-19 1.75415e-225 0.00437593 2.26675e-161 7.32743e-211 2.2799e-119 3.4113e-156 2.55507e-146 5.19048e-09 
95 0 0 0 1.86748e-49 0.00125058 4.1076e-255 9.98507e-62 3.76228e-259 4.53998e-22 1.96583e-185 
96 0 0 4.65906e-220 0 2.42446e-270 2.24111e-198 3.71356e-257 0 0.00877666 0.00279436 
97 0.00301426 2.63637e-149 2.42081e-134 1.0193e-143 0.000820488 2.3508e-261 0 0 0 6.59505e-165 
98 0 0.00603257 1.17684e-173 1.84288e-17 8.90435e-278 0 1.067e-59 2.60586e-32 3.93276e-321 4.76227e-250 
99 3.47992e-200 0 4.63094e-279 1.55137e-93 0 1.2737e-84 0.00137074 0 0.00168175 0 
100 0 3.07575e-130 0 0.00126098 1.09932e-278 3.90666e-44 3.20084e-264 0 0 0 
101 0 0 2.12117e-277 2.89579e-92 0 8.02668e-95 0.00220389 0 2.64646e-77 0 
102 7.1849e-71 2.39297e-94 5.63413e-19 0.0120488 6.64061e-105 3.01321e-41 1.16973e-07 8.87736e-130 2.89936e-08 6.47229e-142 
103 3.91291e-103 0.00252334 4.65428e-199 9.52059e-35 1.16872e-148 8.98763e-58 0.00261121 1.99363e-47 9.39906e-178 2.07184e-123 
104 3.04812e-22 6.11467e-111 1.92269e-69 0.0200912 2.12663e-52 3.94752e-20 2.58149e-08 4.68203e-130 3.2535e-10 4.75354e-150 
105 1.20801e-13 3.61562e-107 2.28728e-71 0.00700697 6.88306e-213 2.8055e-11 4.72672e-18 9.07243e-147 3.0419e-19 2.91683e-143 
106 0 0 0.00520302 0 0 5.67663e-249 0 1.44996e-304 7.36837e-202 0 
107 3.22607e-63 3.7855e-19 2.50884e-225 0.00481693 2.7765e-163 6.89206e-249 2.26476e-120 4.24732e-156 2.36223e-146 5.06874e-108 
108 0 0 0 6.82484e-50 0.00140362 6.68344e-256 2.19522e-62 5.47894e-260 2.40231e-22 4.38216e-186 
109 0 0.00336165 5.1447e-254 0 3.70585e-248 5.17713e-297 7.72936e-219 0 6.17298e-147 2.85109e-258 
110 4.24896e-322 0 0.00181997 8.45958e-218 0 0 5.19224e-248 0 0.00418291 3.97268e-289 
111 2.46768e-60 2.70674e-227 9.27655e-227 0 0.0110143 9.95851e-171 6.42949e-188 1.82527e-306 5.18863e-178 1.54579e-75 
112 0 0.018489 0 0 0 7.99439e-280 0 0 0 0 
113 0 0.00336165 3.28766e-254 0 1.12309e-248 9.03342e-298 2.19383e-219 0 3.64022e-147 8.83984e-259 
114 2.07197e-180 1.45885e-05 1.75564e-180 1.12017e-76 1.43795e-25 2.23459e-89 1.12548e-191 5.3948e-134 3.22001e-101 0.00768999 
115 2.91375e-222 0 1.18024e-33 5.49927e-211 1.29077e-177 1.95484e-293 5.50858e-285 1.29363e-60 0 0.00611283 
116 0 0 0.00528758 1.45749e-115 4.6523e-25 1.06363e-35 9.78795e-209 0.00191843 4.8294e-87 0.00488943 
117 0.00348242 0 0 0 5.92205e-230 1.18489e-219 1.02726e-144 0 2.93727e-177 0 
118 1.73946e-07 8.40446e-52 3.09477e-21 2.01679e-22 0.0304621 3.94668e-14 4.7686e-16 1.71718e-09 2.39824e-30 1.48363e-29 
119 1.4475e-08 1.64234e-24 4.16015e-17 1.47249e-05 1.54942e-12 1.34614e-14 1.44311e-05 6.46484e-24 3.9372e-11 4.38656e-14 
120 0 0 0 0 0.00708067 0 0 0 0 7.18123e-309 
121 6.97807e-35 3.85784e-151 0.0639967 2.00732e-113 3.11274e-13 2.85177e-22 1.81588e-184 5.735e-62 8.89599e-60 7.94252e-11 
122 1.88075e-245 4.7708e-142 0.0271386 3.20265e-217 3.59342e-103 4.12144e-12 1.00547e-242 4.6144e-23 4.96507e-101 1.4211e-50 
123 0.00870604 0 0 0 0 0 3.21537e-278 0 0 0 
124 3.26508e-268 0 0.00520302 0 1.18143e-205 0 0 0 0 0 
125 3.07136e-246 4.98887e-94 9.8292e-150 0.00126093 0 0 3.47811e-54 2.16364e-266 4.62884e-29 5.12834e-151 
126 0 0 1.62565e-176 0 3.36032e-275 0 0 0.00611243 0 2.0857e-306 
127 2.46679e-236 2.23235e-47 4.5618e-283 2.66775e-156 4.86672e-21 1.0001e-169 1.97626e-323 3.44591e-272 1.61655e-289 0.00574388 
128 2.35737e-252 1.87792e-156 2.68139e-12 0 5.69593e-221 0.00239373 0 1.08825e-257 0 3.56984e-275 
129 5.80767e-253 1.81185e-157 1.14358e-12 0 2.85699e-221 0.00239373 0 3.11093e-258 0 3.98112e-276 
130 2.83889e-252 8.82147e-157 1.98857e-12 0 1.15415e-220 0.00239373 0 3.46022e-258 0 1.84465e-275 
131 0.000731511 2.95469e-143 1.86504e-131 1.43211e-94 2.94494e-129 0.000441652 2.25809e-05 0 6.44849e-05 1.10964e-183 
132 7.96414e-10 0.00992657 5.95706e-34 5.14498e-26 1.13079e-80 2.69846e-07 1.12755e-148 1.71216e-173 4.94943e-135 2.43838e-130 
133 6.22292e-170 3.17816e-101 1.35401e-153 1.13602e-09 0 1.62129e-155 0.00334769 1.36507e-151 1.80248e-10 1.39898e-155 
134 0 0 0 0.00504667 0 0 0 0 0 0 
135 0 0 1.47716e-113 9.95261e-81 1.22269e-209 0.0029234 4.49348e-196 0 8.08143e-227 1.02762e-233 
136 0 4.67018e-101 1.20422e-308 5.44216e-142 3.04882e-54 0.00725047 5.20241e-193 0 1.05852e-54 5.25306e-20 
137 6.64831e-50 9.9213e-61 5.93393e-08 2.16107e-05 8.84795e-20 0.00530908 8.01844e-13 6.93175e-17 7.43883e-18 6.27222e-26 
138 3.74157e-132 1.80546e-182 3.07638e-260 5.83445e-93 0 0.0029234 7.2186e-144 0 8.96544e-87 0 
139 0 0.00336165 0 4.2623e-170 0 0 5.85827e-249 0 6.03097e-298 0 
140 5.20679e-09 1.21164e-14 6.3903e-15 5.29943e-21 8.66347e-24 7.79301e-07 0.00294422 1.72329e-21 1.80083e-71 0.00143917 
141 1.76905e-20 1.22336e-29 2.63697e-22 0.000805692 1.69425e-319 7.07294e-83 1.43083e-141 1.53585e-292 3.58745e-100 7.31951e-119 
142 0.0156024 0 4.03268e-70 7.47389e-151 7.168e-252 5.20256e-20 3.92156e-195 2.02471e-191 4.85778e-103 2.58607e-244 
143 1.42142e-183 3.56542e-95 0.0013043 5.71589e-23 0.00038464 2.73128e-138 5.17433e-93 9.56605e-151 0 1.08694e-135 
144 1.04629e-58 1.62314e-300 1.36757e-57 2.3818e-11 1.33972e-104 0.00237287 0.000271213 1.91641e-194 2.17343e-28 4.97728e-134 
145 2.04209e-161 2.46495e-05 2.6749e-140 9.63273e-50 1.5084e-225 6.42921e-109 0.00902858 1.35359e-144 1.03642e-93 7.63619e-152 
146 0 0 0 0 0.00944089 0 1.36164e-289 0 0 3.08396e-201 
147 0 0 0.00346868 0 0 0 0 0 0 0 
148 6.03788e-94 3.15465e-39 0.000482641 0.00147247 1.04681e-290 1.00437e-93 1.26155e-59 1.34771e-270 2.101e-35 2.05033e-156 
149 0.0232089 6.62515e-07 9.87487e-285 5.1916e-302 5.24652e-09 2.1604e-261 0 0 2.49753e-304 1.15237e-246 
150 7.38646e-101 0.00128939 5.98652e-306 1.58579e-15 0.000250164 1.46426e-239 2.23171e-10 0 2.19851e-160 5.03534e-05 
151 1.97457e-208 2.96618e-106 8.60545e-154 0.000239628 6.39642e-237 0 1.69956e-63 6.65335e-144 0.00750995 3.8696e-155 
152 3.56144e-05 4.55478e-29 3.47495e-21 6.96082e-13 9.1187e-17 0.00246277 2.34354e-11 2.07594e-30 8.38589e-07 2.71812e-13 
153 0.00522362 0 2.45642e-193 1.63552e-88 1.29113e-188 1.50092e-258 9.82319e-175 0 4.76428e-171 2.8029e-281 
154 6.12642e-152 0.00839108 2.22002e-90 1.25061e-07 3.28188e-209 3.4705e-56 3.86756e-61 3.59887e-37 2.84114e-21 6.04534e-253 
155 0.00719907 1.90628e-28 3.82394e-17 4.09999e-38 6.73394e-22 5.36264e-12 2.90669e-05 1.6115e-46 1.83905e-208 6.18386e-05 
156 3.2142e-201 0 1.62185e-69 8.60707e-08 2.83983e-299 0 0.00578183 1.15438e-208 2.41438e-216 3.86353e-243 
157 6.82448e-85 0.00634303 3.38207e-220 4.15655e-166 0.00119957 1.95924e-38 4.14694e-92 6.21865e-10 2.37604e-204 2.77766e-13 
158 3.2586e-314 4.94051e-71 4.44188e-153 5.59818e-84 3.40856e-208 0.00254906 0.00396947 6.85257e-258 4.7156e-10 7.10389e-06 
159 8.90557e-08 3.22371e-10 1.98095e-25 0.000590029 5.63035e-79 1.48907e-12 5.46502e-12 2.34254e-27 1.17999e-10 1.19078e-13 
160 0.0112529 1.23252e-208 1.27337e-06 5.1028e-26 1.06233e-135 2.17867e-85 6.99878e-09 4.05679e-227 0.00142752 3.98985e-188 
161 0 0 0.00346868 0 0 0 0 0 1.10093e-171 0 
162 0 2.09885e-98 0 0 2.97859e-286 0 0.00330583 2.99341e-310 3.60921e-236 5.50994e-137 
163 7.52728e-101 9.78348e-311 1.4736e-14 6.38367e-90 1.45046e-101 1.19862e-14 7.24996e-14 9.77291e-166 0.00877677 9.76274e-39 
164 1.19575e-201 0 1.11475e-65 0.0012615 1.9702e-304 0 1.04894e-113 4.78512e-209 1.77618e-212 0 
165 1.14298e-60 4.1661e-317 0 1.44566e-45 4.39889e-146 0 1.96874e-140 0 1.23738e-08 0.00529373 
166 0 0 0 0.00504667 0 0 0 0 0 0 
167 1.59383e-92 0 4.93431e-244 0.000213529 0.00038417 1.6739e-166 3.92016e-269 4.44262e-293 1.83786e-149 2.37535e-58 
168 0 0 0 0 9.30861e-304 0.0190021 0 0 8.73432e-318 0 
169 0 0.00336127 3.59347e-172 1.90487e-95 0 0 1.11551e-62 9.46934e-148 0 4.75978e-249 
170 4.85295e-246 0 0 0 0 0 0 0 0 0.00612383 
171 4.861e-77 1.5642e-113 2.59666e-17 2.80246e-05 9.68445e-94 8.89761e-17 1.19167e-30 2.18192e-79 0.0214493 5.1652e-13 
172 2.91768e-282 0 2.56325e-202 0.000640573 5.90517e-310 1.09139e-320 0 2.9741e-233 1.63332e-313 0.00487718 
173 0 0 0.00693736 0 0 0 0 0 0 0 
174 3.72269e-43 7.61674e-17 1.19396e-32 2.40374e-42 7.13052e-40 1.80753e-89 0.005116 1.00451e-294 5.11078e-56 2.09046e-138 
175 1.89394e-106 7.87632e-07 5.01526e-231 5.81843e-35 3.6327e-20 4.64764e-09 0.00774259 7.82467e-46 9.48828e-38 2.02258e-82 
176 5.90648e-148 0.00255397 7.64169e-74 4.79046e-19 4.15917e-261 6.14104e-18 4.76594e-09 1.54371e-142 0.00422967 3.14286e-186 
177 2.32032e-09 6.99613e-17 9.157e-14 1.36453e-06 8.2932e-09 1.09192e-11 1.11892e-09 2.35488e-14 3.56198e-12 6.97696e-11 
178 6.93639e-103 9.99651e-128 1.91487e-298 8.62038e-274 0 0 0.00220386 0 1.66073e-191 0 
179 1.64108e-200 8.77375e-88 1.54708e-53 0.00126166 1.01458e-250 2.71641e-220 2.44405e-154 3.21925e-210 4.0022e-135 4.47294e-216 
180 0.00522362 0 4.01147e-193 1.84307e-88 8.30106e-189 3.07774e-258 1.99508e-174 0 5.77205e-171 3.67176e-281 
181 5.01577e-287 2.62926e-237 3.69505e-201 1.47812e-179 0 2.00709e-175 0.00440777 0 3.30663e-144 1.07303e-288 
182 0 0 0 0 0 1.83089e-275 0 0 0.00750826 0 
183 1.13669e-29 0 5.66221e-219 1.19176e-253 0.00155794 4.03347e-267 4.64291e-201 0 3.73813e-261 1.79914e-158 
184 1.04322e-11 4.59991e-11 1.56376e-12 7.94273e-09 9.45431e-11 7.01643e-09 9.58122e-07 6.15725e-29 2.87846e-10 6.4633e-33 
185 1.35967e-12 1.2212e-43 7.85267e-14 9.30048e-13 0.0331573 1.71192e-33 1.04141e-15 2.00601e-08 4.69295e-28 8.49191e-15 
186 9.40353e-225 0 4.59177e-258 5.9273e-105 0 1.68186e-158 0.00550972 0 1.72426e-146 2.24669e-277 
187 1.33789e-204 0.00759165 0 2.90992e-14 0.000233396 2.80196e-50 3.5275e-273 0 4.84862e-289 6.38604e-300 
188 5.31858e-242 4.46325e-107 0 1.24278e-300 0.00157348 2.19005e-255 0 0 2.64702e-310 0 
189 1.19948e-160 0.00336165 1.14348e-192 1.16598e-140 1.05854e-255 8.25875e-212 1.79304e-201 2.22894e-278 4.23007e-173 2.0316e-185 
190 1.99486e-130 2.42891e-68 0.00332805 0.00174083 3.5468e-256 5.30948e-11 1.63311e-138 7.23956e-228 1.51453e-11 3.56727e-116 
191 6.15279e-184 1.75169e-94 1.75487e-51 0.00189242 1.5401e-255 2.07532e-226 4.91536e-98 3.94777e-198 1.52359e-140 2.13833e-222 
192 4.05438e-14 9.50521e-14 3.715e-20 7.07657e-08 1.54928e-05 4.06471e-17 2.70921e-07 1.02961e-19 2.61305e-11 1.37615e-17 
193 1.39781e-288 0 0 0.0018925 0 0 0 8.66333e-235 1.98166e-314 8.81997e-146 
194 9.74815e-232 1.26191e-226 1.85228e-221 0 0.00157345 2.41776e-159 0 0 6.8128e-166 2.66834e-66 
195 1.96531e-229 0.00504247 0 0 1.88961e-297 0 0 0 0 9.88131e-324 
196 1.88645e-69 0.018266 2.33459e-13 2.12118e-98 7.91641e-156 5.96546e-90 1.62846e-122 0 3.88476e-204 3.91932e-20 
197 0 9.0684e-233 0 5.44204e-181 1.4635e-250 2.63741e-223 7.1623e-224 0 0.00250275 1.60283e-252 
198 2.46371e-217 0 4.25948e-30 5.17917e-203 2.08203e-169 1.11023e-289 7.45873e-278 2.94744e-55 0 0.0122049 
199 4.19607e-48 4.68571e-07 1.74198e-33 3.34734e-24 1.98475e-38 4.53283e-25 0.00724244 9.39176e-63 1.40589e-43 0.00165719 
200 3.61413e-85 1.58626e-51 3.09023e-319 3.80431e-322 2.08383e-75 0.00292247 1.96939e-253 4.58478e-169 4.38157e-297 0 
201 1.3529e-91 1.52304e-128 1.24623e-194 3.07531e-174 8.44111e-102 3.27319e-15 0.00837401 2.8373e-22 0.000960518 0.00189648 
202 2.94487e-230 0.00294685 6.15729e-287 5.57591e-145 2.89332e-16 4.4535e-255 2.09151e-237 8.87012e-302 1.05895e-293 2.50387e-28 
203 2.63793e-64 2.22209e-51 4.89703e-244 4.78779e-187 0.000384466 0.00104637 2.34416e-241 4.50752e-165 6.53951e-275 1.85998e-58 
204 5.90782e-23 0 6.51157e-58 5.53864e-140 1.03916e-297 6.09629e-06 6.22123e-180 2.13714e-175 0.00209145 7.50226e-231 
205 1.04453e-242 1.38047e-107 0 5.02439e-301 0.00157348 1.39982e-255 0 0 6.41761e-311 0 
206 1.47736e-61 0 1.46548e-58 1.20398e-17 4.19375e-103 5.97279e-19 7.38544e-80 2.11447e-107 0.00430608 5.24415e-06 
207 6.78053e-05 1.60422e-17 3.03977e-30 9.86495e-25 1.63214e-06 9.11512e-11 5.13883e-06 1.27033e-53 2.46059e-11 1.21892e-09 
208 1.50074e-20 3.74734e-23 4.50519e-31 0.0106827 1.37809e-28 1.95145e-19 0.00201426 4.20737e-52 1.3621e-09 5.67175e-42 
209 0 0.00336165 2.86327e-254 0 3.26776e-248 1.09005e-297 4.5263e-219 0 2.62598e-147 1.12835e-258 
210 0 0.018489 0 0 0 5.41456e-280 0 0 0 0 
211 1.44747e-314 0 0 0 0.0039337 4.69952e-270 0 0 0 0 
212 1.9444e-56 6.39851e-20 0.00223067 0.000654108 4.65275e-181 0 1.8065e-184 4.32149e-151 1.41695e-41 3.81053e-108 
213 0.00363824 2.03162e-217 1.12334e-115 9.87721e-115 4.82955e-225 1.11124e-92 0.00715587 1.52705e-237 4.7799e-152 5.50157e-245 
214 0.00522362 5.08377e-214 3.81189e-112 9.03877e-300 1.05424e-307 3.21475e-91 1.13611e-221 1.07247e-105 9.99896e-194 8.9128e-280 
215 1.17156e-314 0 0 0 0.0039337 3.96261e-270 0 0 0 0 
216 8.77666e-24 8.56529e-20 1.10642e-71 0.0165944 7.4394e-26 5.35168e-23 0.000828955 2.32526e-51 5.69836e-14 5.60511e-107 
217 4.37742e-321 0 5.48907e-321 9.95318e-217 0 0 2.61249e-247 0 0.0050055 8.80978e-289 
218 3.38475e-103 0 1.94268e-18 1.96679e-08 2.57071e-103 1.47387e-69 7.83364e-28 2.11155e-145 0.0178557 4.0044e-09 
219 7.41628e-65 1.58095e-119 7.18353e-13 4.47137e-13 5.91784e-88 3.41828e-05 4.20048e-82 1.09823e-10 0.00456733 5.80337e-35 
220 5.6603e-21 5.7986e-105 4.58449e-266 1.33325e-15 4.17345e-10 1.05179e-139 1.53722e-12 1.45467e-108 0.00336365 2.38377e-112 
221 0 0 0 0 8.04406e-304 0.0190021 0 0 5.76616e-318 0 
222 6.44623e-312 1.71845e-253 0 0 1.80973e-201 0 0.00220389 0 0 0 
223 0.00348242 0 0 0 6.91692e-323 0 0 0 0 0 
224 1.56087e-219 0.00212692 0 0 2.31067e-273 0 0 0 0 0.0130426 
225 2.33104e-161 3.18317e-06 1.03486e-71 2.44105e-17 1.40226e-225 4.77229e-109 0.00860835 3.67143e-145 8.81625e-94 4.2216e-152 
226 1.04738e-96 2.93518e-126 5.20855e-281 3.76769e-216 0 3.95592e-310 5.91667e-07 0 0.00459391 5.73657e-289 
227 7.90505e-322 0 2.68772e-321 4.5074e-217 0 0 1.20949e-247 0 0.0050055 2.16519e-289 
228 1.03649e-231 2.92844e-226 8.03775e-221 0 0.00157345 2.10578e-159 0 0 2.06797e-165 6.09309e-66 
229 6.73436e-132 9.59505e-182 1.28357e-259 1.03776e-92 0 0.0029234 7.06966e-144 0 2.29193e-86 0 
230 3.65746e-79 2.77546e-118 1.72797e-215 5.1413e-162 2.2747e-88 3.14027e-37 0.00178897 0.00119488 4.24978e-270 2.6772e-35 
231 9.51813e-119 2.07326e-191 0.00122435 1.4867e-192 1.05716e-76 1.00143e-18 1.20151e-159 3.38625e-154 1.05073e-96 0.00164062 
232 0 0.00336165 3.30955e-254 0 1.2513e-248 1.70303e-297 2.68178e-219 0 3.16788e-147 1.38467e-258 
233 0 2.81621e-67 1.30455e-155 9.41548e-180 2.04299e-255 7.58118e-89 3.0611e-164 0 0.0050055 1.15543e-120 
234 4.87935e-139 0 8.83101e-120 4.47286e-32 0 3.39139e-148 0.00209541 1.9798e-300 5.60372e-190 9.0566e-129 
235 1.74046e-92 5.39777e-39 0.00519756 6.20795e-291 0 5.88118e-96 0 0 1.03106e-152 0 
236 3.67932e-233 0 0 2.8928e-136 0 2.4034e-155 0.00330583 0 0 0 
237 3.83577e-157 2.11306e-198 3.31274e-202 0.00125885 1.65361e-207 0 9.11406e-223 2.05358e-233 2.36286e-41 0 
238 0.00522362 4.08273e-267 0 0 0 5.72488e-210 0 0 5.39373e-156 0 
239 2.52855e-147 3.67005e-232 5.67076e-11 1.73325e-05 1.50698e-101 6.47051e-92 2.6085e-16 1.58184e-67 0.00668751 6.44642e-162 
240 0 0 1.36208e-201 0 0 4.92089e-321 0 0 0 0.0122477 
241 4.48267e-88 1.61613e-42 0 3.66826e-07 1.06126e-83 3.04293e-134 0.00247595 2.83143e-219 8.59866e-97 9.81732e-88 
242 2.67021e-310 0 0 0 0.00157348 9.4203e-277 0 0 0 0 
243 6.20625e-225 4.97974e-115 1.7958e-162 0.0225017 1.71223e-241 2.36284e-68 9.75939e-18 2.47093e-133 1.64101e-53 1.00083e-170 
244 1.27179e-63 0.0130314 2.94799e-11 5.2194e-165 1.58653e-153 2.69747e-269 2.66192e-226 3.48856e-260 3.66834e-203 0 
245 1.48692e-119 3.62162e-94 0.00130443 2.5812e-22 1.63722e-137 6.85227e-142 1.36987e-93 5.56382e-149 8.04248e-195 0.00162573 
246 5.36876e-08 6.61009e-25 5.72791e-20 8.1258e-07 0.0022446 2.50738e-14 7.34718e-18 8.04556e-21 3.25409e-13 2.12208e-17 
247 2.98254e-38 7.00433e-152 3.41635e-09 8.16226e-26 1.27345e-08 0.00296534 3.93874e-10 2.24679e-172 1.19106e-107 5.64531e-68 
248 1.30106e-35 1.81728e-168 4.12423e-70 8.12575e-11 3.20001e-308 0.00254391 0.00327851 5.59602e-190 8.36399e-102 5.56369e-142 
249 3.04544e-08 2.58145e-191 2.65363e-25 2.36084e-77 0.0285699 6.51713e-103 7.05954e-77 1.86807e-13 4.15258e-40 2.83391e-19 
250 4.47255e-229 0.00504247 0 0 8.15539e-297 0 0 0 0 2.47033e-323 
251 0 0 0.00346868 0 0 0 0 0 4.23022e-172 0 
252 5.13892e-10 0.00720657 5.67318e-111 4.77002e-88 7.13496e-29 3.7334e-93 8.68651e-05 6.28837e-117 0.000454916 5.69751e-88 
253 8.91774e-246 0 0 0 0 0 0 0 0 0.00612383 
254 7.09298e-304 0 0.0130487 3.27052e-46 0 2.6227e-107 1.1739e-194 7.95677e-157 5.63798e-07 6.21394e-185 
255 1.8136e-242 5.73712e-107 0 1.54986e-300 0.00157348 5.57925e-255 0 0 8.3125e-310 0 
256 0 0.00336165 2.93792e-254 0 1.6442e-248 1.3991e-297 4.00709e-219 0 4.31081e-147 2.18529e-259 
257 1.33893e-21 1.85337e-20 1.36567e-24 0.00131909 3.42883e-11 3.51058e-53 0.00034489 1.78064e-45 1.8335e-70 1.41526e-126 
258 2.23826e-210 0 0 3.8728e-218 0 1.30509e-108 2.19988e-252 0 0.00250275 0 
259 0 2.07961e-186 4.67559e-201 0.00125967 8.02937e-250 1.61806e-242 5.8356e-26 0 3.93608e-108 4.08391e-271 
260 4.14587e-163 8.3969e-206 4.36504e-71 0.00252035 9.3673e-211 0 7.07117e-119 1.29063e-212 1.03866e-48 0 
261 2.37127e-41 1.05533e-129 0.0652594 4.65425e-57 1.78612e-112 1.8707e-21 2.7012e-124 3.17988e-177 9.27958e-91 1.00096e-62 
262 0 0 6.28347e-113 7.98115e-80 1.21878e-209 0.0029234 2.17758e-195 0 2.48039e-226 7.32351e-234 
263 3.01874e-321 0 5.2618e-321 5.27695e-217 0 0 2.43953e-247 0 0.0050055 1.00768e-288 
264 2.5766e-29 2.99665e-44 1.1937e-29 9.98265e-23 1.90255e-204 8.85072e-266 0.0106045 1.21585e-270 1.21181e-128 1.79944e-123 
265 0 0 0 0 0 0 0 0.0366746 0 0 
266 2.20685e-252 0 1.23684e-185 0.00610314 8.91561e-267 4.35655e-09 1.38511e-89 0 8.83953e-242 0 
267 6.06685e-168 2.22156e-193 5.1803e-208 4.75634e-17 0 3.77781e-156 0.00383105 3.29646e-151 8.30599e-15 4.55535e-271 
268 2.7025e-29 0 5.49387e-219 1.75336e-253 0.00155794 2.24637e-267 7.88414e-201 0 6.55995e-261 2.70645e-157 
269 1.34399e-39 0.0048133 1.83329e-31 9.18245e-29 1.17523e-146 1.52798e-47 2.22185e-16 3.5814e-42 7.13421e-54 1.44604e-125 
270 0 0 0 0 0 6.34509e-13 8.47925e-110 0.00017817 6.53398e-41 4.63325e-313 
271 0 0 0 6.30577e-60 3.60459e-15 8.71072e-17 0.00495204 9.92345e-12 5.70117e-29 4.67204e-196 
272 3.16271e-237 2.35654e-259 2.72143e-208 0.00841388 2.97878e-170 1.53428e-14 5.30556e-119 3.29838e-231 3.34571e-223 2.20449e-144 
273 0 0 0 0 0 7.7871e-272 0 0 0.010011 0 
274 7.23054e-312 1.53947e-253 0 0 1.52885e-201 0 0.00220389 0 0 0 
275 0.00235753 1.03034e-92 3.39339e-53 1.06169e-244 3.16401e-08 4.99891e-58 3.02713e-50 2.58179e-98 3.07604e-167 2.23678e-21 
276 6.09615e-213 0.0176584 3.30917e-66 8.81194e-15 4.23472e-263 6.55208e-229 1.93947e-167 1.16191e-220 3.77465e-146 6.80606e-228 
277 2.31655e-277 0 1.48463e-214 0 0.00472044 0 0 0 0 0 
278 5.45463e-247 1.98401e-94 3.25841e-150 0.00126094 0 0 6.1126e-54 8.57644e-267 1.37105e-29 9.9671e-151 
279 0 0 0.00693736 0 0 0 7.86587e-267 0 4.89673e-311 1.48553e-267 
280 0 0 0 3.11166e-221 7.65628e-267 0 0.00661166 1.19296e-245 9.18692e-196 8.16793e-296 
281 1.10132e-85 6.71376e-278 9.91288e-156 0 2.03151e-178 0 1.39738e-292 0 6.20047e-292 0.00408256 
282 0.00522362 0 2.25102e-125 0 1.47087e-124 1.58703e-162 1.08789e-275 0 3.82312e-88 2.90226e-176 
283 1.85406e-153 0 5.75942e-170 4.43887e-07 1.78127e-28 3.4823e-124 5.37413e-97 5.47371e-16 6.35231e-103 0.00748045 
284 3.96692e-123 2.60327e-95 1.73439e-138 1.09885e-25 8.59687e-18 2.61042e-161 1.10624e-06 0.000513123 0.010323 2.40673e-88 
285 2.25837e-98 1.61225e-198 4.18961e-13 6.65743e-78 6.21359e-100 1.62588e-19 0.0088734 1.83625e-152 5.82107e-75 4.87e-37 
286 1.52897e-152 0 0 0.00126167 0 1.55394e-194 1.41177e-157 8.36144e-252 0 4.75397e-133 
287 0.00348242 0 0 0 1.13635e-322 0 0 0 0 0 
288 0 0 0 0 5.04593e-273 0.0058468 0 0 1.97477e-254 0 
289 3.97012e-226 7.28007e-229 1.21492e-218 7.64284e-69 1.23423e-09 5.47756e-167 3.09645e-82 2.98354e-280 0.013373 1.08392e-68 
290 1.59752e-120 2.34379e-20 1.27204e-118 1.74712e-83 0 2.06547e-77 1.36688e-108 0 1.60331e-276 0.00400564 
291 3.03043e-48 0 1.26662e-18 2.58427e-126 2.1734e-24 5.11179e-68 5.4451e-39 2.32293e-133 1.28345e-82 0.0236919 
292 0 5.77372e-58 0 1.10959e-87 0 0.0029234 1.63031e-186 4.77259e-220 3.42995e-316 0 
293 0 5.39476e-72 1.47829e-07 9.23205e-26 2.98659e-141 2.55112e-146 0.00289091 4.97273e-155 4.15943e-235 5.52334e-129 
294 6.94261e-242 1.50304e-87 9.35023e-181 1.70523e-14 1.1176e-267 0.00168022 0.000985694 0 2.54072e-114 2.90955e-77 
295 4.82971e-246 2.60647e-94 1.98429e-149 0.00126093 0 0 1.01774e-53 1.51499e-266 2.92012e-29 1.21384e-150 
296 1.55223e-246 1.03311e-94 1.17649e-149 0.00126094 0 0 2.33323e-54 1.3861e-266 1.28227e-29 1.5784e-151 
297 6.15235e-14 1.27921e-44 5.55974e-38 7.25928e-121 5.42708e-96 0.00910719 5.08658e-06 0 7.01852e-301 0 
298 0 0 0.0086717 0 0 0 5.53179e-241 0 1.94143e-269 4.1718e-258 
299 7.26727e-63 5.59579e-178 1.22065e-62 3.15102e-16 3.30638e-109 0.00415696 8.18476e-85 1.29219e-199 4.12596e-34 1.57491e-138 
300 3.72793e-134 7.2374e-06 6.65474e-21 9.71794e-10 1.91365e-208 9.86918e-11 2.33545e-23 0.0255681 2.54696e-18 1.33957e-148 
301 6.0535e-20 2.33083e-63 1.57228e-65 8.62308e-19 7.53382e-17 0.00209434 8.36719e-20 0.00174064 1.59282e-74 0.0010524 
302 0.002243 1.60866e-126 1.53145e-162 8.62082e-09 7.45153e-18 3.96509e-26 9.54899e-29 3.49157e-132 1.57903e-111 8.786e-21 
303 7.77562e-139 1.49905e-37 1.32965e-19 0.00281298 4.30655e-15 7.13721e-53 1.85995e-25 8.2473e-05 1.281e-74 3.53536e-20 
304 5.77951e-34 5.39024e-54 1.70072e-36 9.92624e-10 0.00150813 2.10265e-174 0.00119303 2.66341e-150 2.02726e-10 1.33185e-33 
305 5.21862e-312 7.72232e-254 0 0 7.45476e-202 0 0.00220389 0 0 0 
306 2.68276e-10 1.01205e-18 1.09235e-16 9.72592e-37 1.47143e-10 4.24215e-08 6.83045e-05 2.42138e-18 6.4319e-07 7.08708e-10 
307 7.8268e-120 2.79613e-196 0 1.14562e-315 0.00903241 1.33751e-217 6.8242e-166 5.15385e-270 3.28158e-202 3.95063e-10 
308 1.80286e-13 6.16128e-16 1.29365e-29 0.000714042 0.000120172 8.6074e-12 9.60317e-15 4.86369e-46 1.088e-63 3.66084e-32 
309 1.11461e-238 0 2.26195e-123 3.48257e-311 0 1.51719e-192 0.00440777 0 1.12809e-154 0 
310 0.000909776 1.81006e-86 0.000909656 1.16413e-71 1.05635e-146 1.26329e-238 0.000188521 1.35439e-137 1.06341e-195 8.5202e-314 
311 0 0.00336165 0 4.259e-260 0 0 1.37012e-221 4.96562e-255 9.1708e-275 0 
312 8.28371e-25 1.16921e-184 1.14741e-164 1.04132e-11 5.41083e-14 2.56888e-204 1.4204e-61 0.00877423 1.00916e-14 8.45148e-118 
313 0 1.99034e-84 0 4.67553e-166 0 2.64809e-256 0.00220389 0 6.02778e-153 7.67186e-74 
314 1.16859e-167 0 0 0 0 0 0.00220389 0 0 2.3277e-191 
315 0.00140396 0 0 0 1.83497e-05 3.05817e-274 0 0 0 0.00446134 
316 1.01195e-277 0 4.82029e-215 0 0.00472044 0 0 0 0 0 
317 2.57173e-44 7.07218e-66 7.88477e-79 8.89244e-18 6.34674e-99 0.0160834 6.64841e-10 7.51612e-188 1.16219e-11 9.17189e-255 
318 1.51125e-41 0 3.45913e-184 3.35071e-152 0.010871 6.94944e-174 2.11461e-43 0 9.07548e-276 8.12237e-31 
319 0 0 2.91168e-230 1.19718e-176 1.09357e-314 2.96056e-241 4.90859e-187 3.73671e-119 2.90655e-111 0.0061238 
320 4.65412e-24 1.82092e-68 5.14745e-69 0.000437383 4.96344e-14 2.84378e-07 4.64333e-23 3.63372e-06 2.72843e-39 2.25089e-07 
321 7.52619e-74 2.29558e-31 1.49352e-213 0.0170003 5.84461e-174 1.02227e-65 1.46797e-16 1.2351e-130 5.31029e-113 7.39279e-14 
322 1.66449e-103 2.32773e-22 8.90873e-11 1.53929e-07 2.8908e-18 6.03292e-13 6.08103e-24 2.45662e-07 0.000372933 1.44765e-22 
323 8.63388e-14 2.26208e-14 5.68329e-16 7.28292e-08 2.25756e-05 9.36912e-17 5.31796e-08 1.54712e-23 8.82284e-11 1.54032e-19 
324 0 0 0 0 0 4.25479e-192 0.00220389 0 4.58686e-307 0 
325 1.0519e-05 3.22508e-120 0 0.000859535 5.40057e-213 0 2.62443e-95 0 2.64158e-101 0 
326 0.00522362 0 1.48756e-193 2.63279e-88 1.48659e-188 1.25428e-258 9.96636e-175 0 2.99403e-171 2.39114e-281 
327 7.33374e-20 4.95849e-15 4.51602e-14 1.43682e-11 2.81163e-25 1.71089e-09 0.0100687 1.15948e-25 5.58226e-09 1.25466e-12 
328 1.24782e-22 8.48258e-05 1.77069e-18 9.70755e-12 1.92943e-94 1.0597e-12 1.16566e-11 1.23494e-60 0.00535109 1.73305e-18 
329 0 0 1.18422e-201 0 0 3.34977e-321 0 0 0 0.00612383 
330 1.83458e-187 2.43018e-268 5.29601e-75 0.00525954 1.21859e-278 8.04043e-104 1.52444e-99 2.63454e-204 1.29756e-191 5.61307e-09 
331 3.39218e-121 4.29522e-144 1.9827e-11 5.43637e-302 2.9926e-187 0.00141565 1.62839e-163 1.64384e-245 9.56932e-196 0.00120965 
332 2.51264e-134 3.36142e-38 1.85873e-134 1.06042e-99 1.92732e-10 3.03398e-92 2.80412e-121 0 2.97881e-169 0.0174487 
333 0 0 0 0 0 0 0 0.107986 0 0 
334 3.51313e-229 0.00504247 0 0 2.29519e-297 0 0 0 0 2.96439e-323 
335 0.00770092 2.77054e-99 7.96985e-05 9.72359e-22 4.88188e-20 8.25352e-73 1.18531e-08 2.86341e-73 1.21821e-13 3.92182e-07 
336 0 0 4.46055e-202 0 0 4.04146e-321 0 0 0 0.00612383 
337 1.6234e-233 0 0 2.02972e-136 0 2.50556e-155 0.00330583 0 0 0 
338 8.03243e-09 3.77436e-06 0.00549086 4.46508e-15 1.44109e-16 2.60802e-06 6.23874e-37 2.45802e-15 3.87138e-53 3.38965e-26 
339 9.90159e-15 3.88478e-15 9.63167e-25 0.017908 4.94302e-32 1.58211e-13 5.19739e-06 5.87227e-51 2.07119e-10 6.59843e-26 
340 2.28205e-267 0 5.13144e-174 0.0071526 8.47306e-232 2.64e-291 2.09146e-22 8.41729e-51 4.118e-279 1.56406e-17 
341 0.00745918 0.00296314 0 0 7.74778e-291 0 2.77386e-277 0 0 1.07819e-313 
342 2.20841e-262 5.11425e-310 2.67817e-306 5.52891e-05 0.00231648 3.94204e-246 3.99349e-116 0 2.41943e-227 0 
343 0.000462009 2.25747e-12 3.37222e-75 1.3745e-05 1.21862e-102 1.07562e-14 3.34439e-10 2.36803e-55 0.000596025 1.79748e-135 
344 0 0.00336165 1.57304e-254 0 1.5931e-248 3.47462e-297 4.61211e-219 0 1.42762e-147 6.47184e-259 
345 3.37248e-57 0.0045395 4.00965e-223 3.32617e-23 1.60425e-182 1.16519e-289 1.86643e-181 1.87282e-151 6.61082e-141 4.44343e-110 
346 9.82766e-315 0 0 0 0.0039337 4.45292e-270 0 0 0 0 
347 8.36553e-85 9.45295e-52 2.11435e-319 4.5454e-322 8.55465e-76 0.00292247 6.95016e-253 2.38409e-167 4.16784e-297 0 
348 0 0 0 0 1.97732e-314 0.0087702 0 0 3.63238e-314 0 
349 0 0 0.00346868 0 0 0 0 0 5.15285e-172 0 
350 0 0 0 0 8.22064e-304 0.0190021 0 0 7.86001e-318 0 
351 0.00348242 0 0 0 3.95868e-230 8.71105e-220 6.38624e-145 0 9.74289e-177 0 
352 0 0 0 0 6.09816e-287 0 0 0 0 0.0142889 
353 1.30967e-09 2.09487e-10 6.5785e-19 0.000156149 5.2349e-177 2.6247e-288 6.84736e-135 2.00273e-145 6.02898e-114 9.05149e-102 
354 1.67952e-82 1.55731e-142 1.31017e-313 3.34705e-25 3.96746e-99 0.030177 8.88897e-198 4.69002e-142 5.29247e-125 7.16033e-191 
355 0 0.00336165 0 3.82063e-170 0 0 3.29902e-249 0 2.98362e-298 0 
356 1.17016e-261 9.89424e-145 1.04589e-319 2.48711e-303 0 5.73894e-250 1.97238e-192 0 0.00750826 0 
357 0 0 0 0.00504667 0 0 0 0 0 0 
358 0.00306682 5.63519e-141 0 8.84482e-40 6.82308e-25 3.69491e-259 3.31119e-06 0 0 8.60503e-152 
359 0 0.00336165 2.41247e-254 0 1.61144e-248 1.67729e-297 3.81301e-219 0 6.69654e-147 2.04866e-258 
360 7.74756e-249 8.50885e-150 5.21227e-12 0 4.51444e-216 0.0045642 0 6.32008e-252 0 4.65455e-149 
361 1.38661e-242 2.46393e-107 0 5.23117e-301 0.00157348 1.43857e-255 0 0 2.26407e-310 0 
362 4.98823e-312 1.37946e-253 0 0 1.25109e-201 0 0.00220389 0 0 0 
363 3.36267e-06 5.29603e-121 0 0.00086317 2.62894e-213 0 2.25691e-95 0 1.23104e-101 0 
364 3.88828e-11 4.0344e-09 3.01512e-20 0.0018221 4.11796e-13 1.65794e-17 8.26316e-05 4.52709e-55 1.43285e-23 2.41158e-125 
365 1.47617e-242 2.45682e-107 0 3.12115e-301 0.00157348 1.84377e-255 0 0 3.0619e-310 0 
366 1.03712e-248 2.69354e-71 1.34578e-153 2.56341e-07 8.31194e-287 2.96439e-323 0.00247608 5.28833e-269 4.22499e-33 2.61805e-135 
367 0 1.87178e-101 4.66649e-309 1.51329e-142 9.51583e-55 0.00725047 2.47075e-193 0 4.95738e-55 4.92136e-20 
368 0 0 0.0086717 0 0 0 2.38422e-241 0 1.13921e-269 2.95975e-258 
369 0 0.00260304 0 1.46612e-09 2.52344e-269 0 1.96202e-91 9.90167e-23 0 0 
370 3.52437e-91 9.07497e-58 4.94066e-324 0 0.00352568 1.14411e-09 4.7574e-259 4.32984e-173 4.53267e-302 0 
371 0 0 0.0086717 0 0 0 2.0999e-241 0 7.93971e-270 2.05287e-258 
372 8.40415e-14 3.69063e-16 1.24617e-10 0.00296542 9.6398e-102 4.18643e-18 5.73216e-05 2.97707e-93 9.19617e-15 1.59023e-141 
373 3.12645e-242 1.5457e-194 0 0 0 0.0029234 2.14919e-320 0 0 0 
374 0 0 1.15435e-59 1.4436e-41 0 2.72123e-104 6.42082e-191 6.25812e-153 0.00244292 6.63326e-183 
375 4.14494e-168 2.61463e-210 2.15039e-69 0.00189093 6.52006e-214 0 1.19468e-116 2.96355e-211 5.53983e-53 0 
376 1.10082e-167 0 0 0 0 0 0.00220389 0 0 2.79634e-191 
377 0.00346684 2.05074e-15 2.22266e-91 9.03661e-260 1.41401e-204 1.61084e-184 1.13217e-242 0 8.68688e-73 2.94319e-249 
378 3.58856e-229 0.00504247 0 0 9.06058e-297 0 0 0 0 2.96439e-323 
379 0.000116409 3.12984e-11 0.000791583 4.55682e-93 5.10359e-32 1.41038e-164 0.00580303 6.48533e-113 1.85962e-93 6.61964e-14 
380 0 0 0 0 3.26419e-273 0.0058468 0 0 1.91098e-254 0 
381 2.48365e-19 9.36977e-21 1.55277e-63 2.31781e-13 8.60758e-92 0.00437628 7.10648e-14 7.21497e-45 2.09836e-103 0.00211245 
382 2.52604e-164 2.10973e-203 0 4.51948e-228 1.06557e-15 9.62313e-262 7.07142e-308 0.0105587 2.73191e-283 4.70449e-218 
383 1.10305e-246 1.74702e-94 3.6664e-150 0.00126094 0 0 5.51821e-54 2.11864e-266 4.69986e-30 4.75338e-151 
384 0 0 0 0 3.23963e-287 0 0 0 0 0.0142889 
385 3.86648e-57 0.0045395 2.63763e-223 3.48491e-23 7.77431e-183 5.22123e-290 2.18868e-181 1.06746e-151 2.30457e-140 4.0228e-110 
386 1.21611e-239 1.75123e-106 0 5.98552e-06 0.00116693 2.33294e-255 0 6.78738e-235 4.13668e-304 9.33089e-147 
387 2.93991e-274 1.34798e-149 0 1.63506e-102 0 0 0.00330583 0 0 0 
388 0.00348242 0 0 0 1.4445e-229 1.6842e-219 1.49369e-144 0 1.01406e-176 0 
389 7.36829e-91 1.27437e-57 4.94066e-324 0 0.00352568 1.40567e-09 8.47189e-259 4.13921e-173 6.69404e-302 0 
390 0 4.5901e-98 0 0 2.98503e-286 0 0.00330583 3.84465e-310 4.13123e-236 8.74091e-137 
391 0 0 0 0 2.18084e-314 0.0087702 0 0 3.66069e-314 0 
392 1.82163e-210 0 0 3.11733e-218 0 2.91198e-108 2.67181e-252 0 0.00250275 0 
393 0 0 0.00346868 0 0 0 0 0 4.29029e-172 0 
394 0 0.00211319 5.81829e-170 6.01287e-95 0 1.50452e-291 2.51222e-61 1.37509e-145 0 0.00529285 
395 0 0 3.93287e-202 0 0 1.67488e-321 0 0 0 0.00612383 
396 9.46383e-43 2.18019e-244 2.53472e-184 1.72249e-151 0.00670998 1.47779e-174 0.00532893 2.53486e-261 2.87312e-209 1.74354e-32 
397 6.21674e-91 1.46033e-57 4.94066e-324 0 0.00352568 1.39265e-09 7.46796e-259 9.54673e-173 3.91404e-302 0 
398 5.16717e-48 9.36864e-13 6.58242e-200 3.03061e-98 1.08106e-05 2.41264e-217 2.96942e-14 2.46566e-276 0.0134093 4.14819e-171 
399 2.22698e-12 6.40256e-130 1.25157e-22 7.59578e-16 5.77946e-100 2.54188e-16 0.00703016 1.84548e-21 1.90178e-05 7.21553e-10 
400 0.00935488 7.30881e-112 8.07158e-71 5.0203e-259 1.10319e-13 1.36926e-78 2.75169e-71 3.12923e-117 6.53499e-184 0.0155008 
401 4.88322e-14 5.23808e-09 2.80737e-25 0.00481295 6.16841e-47 1.22672e-17 0.000112278 4.37105e-43 2.22507e-93 2.30548e-27 
402 4.53836e-131 1.04501e-33 1.80588e-131 6.16422e-97 2.08708e-279 0.0156644 8.80989e-119 0 3.33728e-254 1.21256e-16 
403 5.88342e-32 3.99063e-45 1.30275e-31 0.00841861 4.98431e-62 1.76115e-56 1.37949e-125 4.17452e-230 2.2144e-70 1.39059e-118 
404 9.33798e-137 0 8.44182e-65 0.000424881 7.59639e-285 0.00205949 7.48873e-188 2.08414e-163 4.84001e-55 5.90303e-219 
405 1.1747e-261 8.41387e-145 7.32897e-320 1.36647e-303 0 3.22186e-250 2.07228e-192 0 0.00750826 0 
406 3.29333e-65 3.53887e-85 0.00346201 6.98104e-30 1.21801e-138 4.81181e-148 9.30315e-102 4.14097e-159 1.95132e-205 3.70875e-149 
407 8.85629e-11 1.00003e-26 1.12382e-14 0.0002292 4.60605e-310 9.96721e-284 8.63053e-132 4.30875e-320 2.48024e-113 1.57731e-111 
408 1.31172e-63 2.09361e-65 4.8512e-196 0.00799352 3.59937e-59 2.23379e-145 3.04851e-17 2.52213e-101 8.93179e-65 1.8333e-12 
409 6.02188e-302 3.02972e-97 0.00018521 1.46728e-22 2.34254e-138 4.24354e-142 0.00178897 1.3753e-152 0 1.22194e-139 
410 6.22623e-42 3.48094e-112 9.26592e-229 1.62507e-199 0.00549168 1.01432e-180 1.39181e-210 0 3.0354e-262 6.97009e-76 
411 1.07187e-200 1.08951e-87 8.38116e-54 0.00126166 1.54145e-251 4.23267e-220 1.92082e-154 2.53278e-210 1.16156e-134 1.95914e-216 
412 2.9856e-314 0 0 0 0.0039337 1.22921e-269 0 0 0 0 
413 4.9138e-136 2.28756e-18 1.13229e-134 9.94353e-05 5.49841e-27 1.38951e-35 7.95995e-131 1.19105e-244 4.06094e-61 1.18909e-242 
414 0 0 0.0086717 0 0 0 2.03498e-241 0 8.54243e-270 1.88323e-258 
415 4.99082e-163 9.37845e-308 0 2.159e-85 8.63644e-288 0.00498271 1.82018e-09 6.82929e-247 1.71261e-117 1.22846e-203 
416 1.62565e-253 1.4904e-103 1.64207e-07 9.80883e-26 1.66732e-142 0.0054325 7.9913e-72 2.1671e-157 1.92346e-252 1.25192e-138 
417 3.24069e-163 7.93236e-308 0 2.14404e-85 4.62068e-288 0.00498271 1.10628e-09 2.76473e-247 2.06431e-117 9.39434e-204 
418 1.42937e-171 3.47695e-06 7.21678e-158 3.40166e-14 0 3.95333e-10 0.00384495 8.89457e-154 1.1583e-14 1.03033e-159 
419 0.00348242 1.38547e-147 0 0 1.64818e-167 4.87456e-275 0 0 0 6.84018e-166 
420 6.40706e-150 0 3.68906e-184 6.12131e-21 5.11766e-304 4.2848e-97 0.00615716 0 2.20828e-157 4.60411e-236 
421 1.64352e-76 7.3273e-103 1.039e-66 0.00329579 2.86711e-16 2.55467e-34 4.12757e-69 2.62814e-131 3.05189e-10 1.84839e-156 
422 1.45414e-91 0.0341061 3.37066e-22 1.02912e-147 3.96488e-62 4.52022e-08 2.41389e-24 0 2.48453e-60 1.7573e-28 
423 0.00870604 0 0 0 0 0 9.27484e-278 0 0 0 
424 2.6187e-210 0 0 8.33434e-218 0 3.95974e-108 6.38597e-252 0 0.00250275 0 
425 7.31978e-76 8.4788e-08 3.53356e-76 0.0125545 1.96092e-126 3.32897e-10 5.16429e-64 9.24092e-150 2.40559e-51 3.09625e-155 
426 0.00732702 8.195e-132 0 2.11723e-15 3.89482e-225 0 6.83365e-106 4.49017e-232 8.22216e-114 0 
427 6.81312e-72 2.59151e-105 1.39249e-22 0.00513242 5.53148e-17 1.2119e-14 5.86959e-60 1.52333e-20 6.45428e-05 2.20183e-50 
428 5.39112e-13 0.0265501 2.54824e-166 1.16126e-23 4.3563e-10 7.64458e-17 1.02771e-19 1.92537e-181 1.65503e-49 3.22148e-91 
429 1.90498e-76 8.14088e-122 0.000597964 4.7448e-08 4.00632e-91 1.74999e-55 0.000292319 3.41394e-154 3.73953e-73 1.03794e-30 
430 3.83133e-255 0 1.20385e-182 3.71828e-167 6.38933e-268 0.0029234 3.70867e-86 0 4.36459e-254 0 
431 4.35235e-122 1.15493e-21 5.64773e-121 5.20019e-63 4.1557e-208 1.09184e-78 1.1114e-06 3.30158e-254 6.44406e-165 0.00364244 
432 7.10307e-87 7.34025e-51 1.06917e-314 5.14539e-180 4.11872e-76 0.00062681 3.85488e-223 4.0346e-169 0.00209146 2.72737e-252 
433 3.92763e-312 5.30348e-254 0 0 1.94293e-202 0 0.00220389 0 0 0 
434 8.0661e-229 0.00504247 0 0 1.70286e-296 0 0 0 0 5.92879e-323 
435 0 0.00672329 0 8.04353e-175 0 0 6.37922e-227 7.64034e-262 2.5103e-280 0 
436 7.69674e-274 2.4399e-149 0 2.78267e-102 0 0 0.00330583 0 0 0 
437 0.000608977 1.06093e-29 3.74449e-130 1.66667e-92 2.59462e-219 4.17602e-85 0.0053669 0 1.28803e-173 6.72893e-13 
438 7.56643e-10 0.00152928 7.05952e-30 8.92376e-11 9.64582e-87 0.0022921 2.07734e-145 2.03839e-178 3.39546e-105 1.46289e-124 
439 2.57878e-10 3.43886e-54 6.33253e-14 4.93448e-07 1.50835e-06 2.83305e-39 3.50066e-72 1.40298e-156 0.000271856 2.24757e-10 
440 0.00348242 2.43108e-147 0 0 1.45286e-167 4.74266e-275 0 0 0 4.92275e-166 
441 4.57037e-08 1.15739e-13 1.50332e-11 4.1908e-08 3.47115e-13 1.06738e-09 3.44751e-06 8.60714e-19 7.63348e-12 6.213e-12 
442 6.80469e-75 6.68707e-25 3.95706e-211 6.12581e-33 2.4749e-45 0.00464723 0.00514398 2.44043e-46 9.24399e-16 4.53973e-101 
443 2.13031e-15 6.40436e-13 1.3985e-17 6.37729e-08 0.0262728 1.31041e-27 1.96476e-30 1.38328e-15 1.2383e-17 5.49439e-11 
444 2.87089e-287 7.0257e-238 1.2931e-201 6.29286e-180 0 1.18654e-175 0.00220389 0 3.35122e-144 1.01752e-288 
445 0 0 1.45407e-304 0.00693917 1.36277e-276 0 6.7107e-133 0 0 0 
446 0.00356067 0.00547689 5.55074e-192 4.33505e-140 3.92934e-255 2.08372e-211 1.01076e-200 1.1599e-230 2.85486e-173 5.32506e-185 
447 0 0 0 2.80964e-220 0 1.02683e-282 5.77475e-245 0 2.6779e-280 0.00408256 
448 0.00222569 2.92925e-144 0.0154667 2.10236e-68 4.35989e-135 7.07757e-80 1.00404e-22 7.1784e-208 0.00899226 2.89916e-179 
449 1.98319e-11 4.13147e-118 2.68336e-06 1.71513e-06 1.78233e-85 1.05155e-23 1.08305e-11 0.0426683 8.34476e-54 1.32146e-15 
450 0 0 0.00346868 0 0 0 0 0 0 0 
451 6.58785e-177 1.94462e-14 0.0518412 2.01647e-91 1.60594e-125 1.62938e-11 1.41296e-181 1.54816e-92 5.99127e-60 3.7884e-158 
452 7.74056e-130 1.04665e-34 2.9951e-63 2.31148e-13 1.81692e-05 1.09003e-91 2.11229e-07 3.27182e-219 2.65413e-146 0.00514708 
453 8.84036e-53 1.87432e-57 0 0.00252137 7.27524e-49 9.78435e-135 3.67743e-142 1.09085e-217 2.71256e-61 1.52128e-92 
454 9.50911e-278 0 9.28949e-215 0 0.00472044 0 0 0 0 0 
455 4.95742e-153 0 0 0.00252334 0 4.79481e-195 9.80664e-159 4.28913e-253 0 4.58648e-134 
456 1.10177e-321 0 1.30927e-321 3.7729e-217 0 0 1.80156e-247 0 0.0050055 3.72439e-289 
457 3.39838e-37 5.8374e-14 9.82374e-25 5.29687e-50 6.83319e-257 1.21525e-82 4.52372e-17 8.58205e-105 0.00593184 0.000387861 
458 0 0.018489 0 0 0 6.5484e-280 0 0 0 0 
459 6.15242e-147 2.07305e-225 9.15722e-128 7.30619e-41 1.28467e-236 7.59856e-155 2.00602e-10 4.51928e-309 0.000871256 0.00487718 
460 0 0.00336127 4.7465e-172 1.36761e-95 0 0 6.07117e-63 1.1178e-147 0 4.13016e-249 
461 6.56439e-287 6.09007e-238 1.54212e-201 9.38183e-180 0 1.24376e-175 0.00220389 0 8.09653e-144 1.43449e-288 
462 0 0 1.8993e-113 3.63039e-80 5.90101e-210 0.0029234 6.95967e-196 0 7.60174e-227 4.92286e-234 
463 1.19149e-153 0 0 0.00126167 0 2.49006e-195 2.2517e-159 6.53368e-253 0 2.68363e-134 
464 0 0 0 0.0018925 2.25251e-292 0 0 0 1.08015e-158 0 
465 0 0 1.65798e-113 9.82955e-81 1.00007e-209 0.0029234 5.20047e-196 0 1.26403e-226 2.61187e-234 
466 5.21481e-44 2.81213e-09 5.67734e-214 2.67123e-11 3.87972e-171 0 2.30883e-175 3.0973e-139 1.36792e-137 9.92407e-100 
467 4.11992e-256 0 1.03511e-182 1.75168e-167 3.03996e-268 0.0029234 3.89421e-86 0 2.36476e-254 0 
468 0 0 1.23151e-201 0 0 2.19365e-321 0 0 0 0.0122477 
469 3.77797e-263 0 0 7.41098e-323 0 0 0.00661166 0 0 5.20102e-243 
470 1.09094e-245 0 0 0 0 0 0 0 0 0.00612383 
471 5.66846e-312 1.57202e-253 0 0 1.06916e-201 0 0.00220389 0 0 0 
472 6.98268e-184 5.74126e-109 0.000614913 5.22147e-11 1.91105e-169 2.24425e-64 0.0130664 4.01988e-168 1.23305e-29 3.12394e-241 
473 0 4.10264e-195 0 5.19911e-255 6.72036e-305 0.0219255 5.05873e-178 0 5.25687e-171 0 
474 4.97486e-229 0.00504247 0 0 2.20685e-296 0 0 0 0 5.92879e-323 
475 0 0 9.4789e-60 9.26118e-42 0 2.31656e-104 6.94896e-191 8.39526e-153 0.00244292 1.17684e-182 
476 1.72985e-11 5.05606e-06 4.60608e-26 1.35587e-07 1.58153e-23 0.00291217 6.9986e-09 2.02582e-51 8.06632e-12 6.32487e-38 
477 1.49504e-166 0 2.52027e-200 0 0 2.17841e-318 0.00316304 0 0 0.00446134 
478 5.30606e-229 0.0100849 0 0 7.4538e-297 0 0 0 0 9.88131e-324 
479 4.53787e-23 0 1.29564e-26 3.46486e-32 3.96849e-122 0.0157457 1.66904e-98 2.9248e-188 3.41096e-46 0.0064245 
480 8.17209e-233 5.38607e-247 1.11224e-201 1.74485e-305 1.72272e-220 3.3034e-316 2.51344e-203 0 0.00250275 0 
481 0 0 4.40576e-113 3.51823e-80 1.83382e-209 0.0029234 8.23497e-196 0 3.1281e-226 1.50428e-233 
482 1.05629e-132 0.00169711 6.87074e-222 0 2.78815e-196 3.69165e-202 4.25718e-165 2.20461e-291 7.50912e-129 0.00733419 
483 0.0057179 0 4.14675e-196 3.00536e-89 1.02815e-191 2.26756e-151 0.00164706 0 1.29668e-172 3.28848e-284 
484 2.02605e-99 4.7298e-44 0.00477274 3.22087e-282 7.10338e-216 0.00150185 0 1.70977e-252 1.04659e-155 7.45506e-150 
485 0 0 0.0086717 0 0 0 3.11488e-241 0 1.46021e-269 2.38661e-258 
486 4.06838e-246 3.56229e-94 2.12107e-149 0.00126094 0 0 3.06461e-54 1.42277e-266 1.2332e-29 1.61859e-150 
487 2.54094e-211 0 0 5.91339e-218 0 4.85514e-109 4.62728e-252 0 0.00250275 0 
488 0 0.00336127 6.52908e-172 2.39072e-95 0 0 2.27493e-62 1.59856e-147 0 6.98974e-250 
489 1.00879e-284 7.64309e-239 0.00784518 9.63986e-181 0 2.39625e-174 9.02095e-05 0 1.87907e-139 1.04218e-256 
490 8.43691e-262 6.6147e-145 7.37689e-320 1.26025e-303 0 2.47271e-250 1.93168e-192 0 0.00750826 0 
491 4.50277e-133 1.93326e-15 0.00794291 4.7439e-93 2.34066e-12 8.1882e-220 0.00744283 4.15103e-245 9.46074e-08 4.47479e-41 
492 1.32861e-85 2.23679e-52 0 0.00126163 1.62778e-81 9.14056e-132 2.30129e-136 1.02281e-216 8.88458e-95 1.95823e-86 
493 0 1.86722e-98 0 0 2.50006e-286 0 0.00330583 2.40859e-310 5.98029e-236 7.45533e-137 
494 0 0 0 0 4.45409e-287 0 0 0 0 0.0142889 
495 1.57981e-311 7.8995e-253 0 0 3.02153e-201 0 0.00440777 0 0 0 
496 6.34407e-315 0 0 0 0.0039337 4.23964e-270 0 0 0 0 
497 3.6559e-294 0 0.00537203 9.65252e-226 3.1325e-217 1.35297e-205 0.00674001 0 5.85882e-131 7.05497e-242 
498 9.77544e-30 4.69894e-17 1.12813e-23 0.0159191 7.61981e-184 7.17268e-11 1.50222e-69 2.02996e-144 7.51478e-60 1.5358e-31 
499 9.00173e-153 3.47321e-113 7.5502e-96 3.66794e-10 6.80474e-175 0.00253686 3.58603e-75 3.13382e-162 0.00418064 4.68223e-182 
500 1.52938e-152 5.09559e-30 0 3.50025e-06 0 4.00908e-73 5.68984e-275 6.82527e-286 0.00209147 1.46008e-259 
501 2.07343e-312 5.69635e-254 0 0 8.26523e-202 0 0.00220389 0 0 0 
502 1.73755e-156 6.20273e-105 4.38094e-162 0.00378428 0 3.63055e-197 1.90495e-64 3.17499e-253 1.01358e-41 1.05568e-136 
503 2.58212e-36 2.51519e-179 7.76883e-71 9.32765e-07 3.70056e-309 0.00532976 1.55394e-12 6.79206e-191 1.97861e-101 1.09014e-137 
504 0 0 3.59043e-202 0 0 4.63434e-321 0 0 0 0.00612383 
505 0.0104472 4.08374e-56 0 3.32146e-315 3.17351e-106 3.02566e-101 0 0 1.00368e-242 1.19863e-152 
506 0 0 0.00346868 0 0 0 0 0 4.61717e-172 0 
507 1.29518e-62 9.55692e-05 2.20261e-228 1.10287e-14 0.00388279 5.58602e-154 1.16892e-165 1.2529e-156 8.37009e-108 5.15017e-116 
508 1.11014e-314 0 0 0 0.0039337 5.13088e-270 0 0 0 0 
509 1.21036e-314 0 0 0 0.0039337 1.00727e-269 0 0 0 0 
510 0 0 0 0.00504667 0 0 0 0 0 0 
511 2.28418e-12 3.06614e-129 1.03504e-57 0.000154803 9.84809e-100 3.12591e-14 0.000558345 1.21346e-191 5.13701e-29 1.21287e-133 
512 3.46688e-11 2.38547e-128 0 4.04981e-11 5.71055e-220 6.38754e-181 0.00357794 0 1.85718e-108 0 
513 0 8.06996e-114 1.55142e-16 0.00467521 5.71484e-154 5.15859e-159 1.3505e-108 1.31603e-169 0 1.08058e-153 
514 0 0 0.00346868 0 0 0 0 0 1.00129e-172 0 
515 5.684e-155 2.93002e-93 2.14104e-63 0.00306238 7.36142e-260 4.54745e-56 1.00503e-78 2.67319e-163 4.72452e-22 3.98104e-141 
516 1.59246e-261 1.01382e-144 1.09683e-319 2.16931e-303 0 5.43671e-250 2.31125e-192 0 0.00750826 0 
517 7.0873e-81 4.3209e-114 2.01807e-214 5.81687e-162 4.28031e-87 1.73541e-35 2.26474e-89 0.00323125 7.5979e-197 0.00325886 
518 0 0 1.28035e-201 0 0 2.61361e-321 0 0 0 0.00612383 
519 1.11605e-314 0 0 0 0.0039337 2.6787e-270 0 0 0 0 
520 5.77069e-321 0 8.23113e-321 1.69623e-216 0 0 4.60284e-247 0 0.0050055 1.74274e-288 
521 0 0 2.24516e-113 2.91484e-80 1.01434e-209 0.0029234 6.71229e-196 0 7.71085e-227 1.24545e-234 
522 0 0.00336165 3.79485e-254 0 2.36932e-248 2.65589e-297 3.26808e-219 0 2.34774e-147 1.44039e-258 
523 9.15666e-118 9.7999e-190 6.11036e-249 2.56922e-103 2.2336e-187 4.0448e-214 0.00178897 2.40229e-278 1.00352e-138 0.00120965 
524 1.73614e-261 1.47357e-144 1.75838e-319 3.16524e-303 0 5.40388e-250 2.87455e-192 0 0.00750826 0 
525 6.75635e-289 0 0 0.0018925 0 0 0 1.37022e-234 7.99953e-315 2.24999e-145 
526 2.92131e-130 9.26778e-38 8.45333e-59 7.3615e-81 9.61794e-221 1.90567e-14 0.021896 1.34014e-156 3.48412e-134 9.85327e-21 
527 2.98132e-167 0 0 0 0 0 0.00220389 0 0 3.93343e-191 
528 0 0 0 6.94175e-173 3.5063e-218 0 0.00220389 2.67526e-306 0 0 
529 0 0 0 3.57721e-173 2.62111e-218 0 0.00220389 1.85944e-306 0 0 
530 1.87086e-166 8.37212e-12 1.96203e-190 1.58258e-148 0.005006 7.34138e-179 9.36651e-16 1.46886e-265 6.34064e-147 0.00763437 
531 2.12485e-286 4.76867e-237 4.07843e-201 2.8344e-179 0 2.96144e-175 0.00440777 0 8.93838e-144 2.11135e-288 
532 0 0 1.70784e-304 0.00183641 0.00500602 0 4.77723e-133 0 0 8.37129e-201 
533 0.00522362 0 6.88991e-193 8.49621e-88 2.95937e-188 3.56717e-258 1.64314e-174 0 1.37399e-170 3.21924e-281 
534 0.0104472 3.59183e-56 0 1.94293e-315 3.23257e-106 3.97386e-101 0 0 6.97223e-243 1.12115e-152 
535 0.000302741 0 0 0 2.2289e-230 7.00132e-218 1.86533e-145 0 0.00918783 0 
536 4.49317e-248 1.55929e-149 2.74258e-11 0 1.06239e-215 0.0045642 0 1.35136e-251 0 1.47931e-148 
537 2.63894e-246 6.12375e-95 1.26725e-149 0.00126094 0 0 3.80843e-54 1.37799e-266 8.83721e-30 1.47405e-151 
538 2.74854e-241 0 0 6.42201e-183 8.68237e-228 7.7813e-272 2.13858e-191 0 0.0125138 1.72452e-241 
539 1.92731e-245 0 0 0 0 0 0 0 0 0.00612383 
540 9.57743e-287 8.60546e-238 6.97542e-202 4.44196e-180 0 2.09739e-175 0.00220389 0 3.85518e-144 2.55113e-288 
541 2.98533e-52 0 0 0 0.0102162 3.25974e-290 6.99261e-215 0 2.70527e-278 5.25153e-178 
542 1.89392e-277 0 2.11447e-214 0 0.00944089 0 0 0 0 0 
543 0 1.9239e-106 1.2494e-14 0.0046752 9.80116e-148 2.28837e-148 6.85004e-99 3.95424e-161 3.92798e-310 9.5815e-143 
544 0.00743956 1.85427e-100 4.68087e-67 1.04785e-06 7.95613e-14 5.81697e-45 5.38207e-22 4.34147e-19 3.66615e-08 4.01645e-34 
545 0.0106712 4.07443e-09 2.69774e-17 3.55683e-146 5.92999e-18 0.00258346 1.08941e-198 3.14745e-256 3.41882e-13 3.79782e-57 
546 0 0 0.00346868 0 0 0 0 0 8.58252e-172 0 
547 2.55551e-255 0 3.20085e-182 1.3411e-167 2.1791e-268 0.0029234 3.32507e-86 0 7.03984e-254 0 
548 1.74733e-255 0 2.46842e-182 4.56951e-168 4.96542e-268 0.0029234 3.94264e-86 0 4.7902e-254 0 
549 2.60373e-321 0 8.6165e-321 1.87823e-216 0 0 3.68603e-247 0 0.010011 1.44128e-288 
550 3.6417e-287 1.00452e-237 3.25048e-202 5.13562e-180 0 8.76726e-176 0.00220389 0 1.99785e-145 7.96608e-289 
551 1.56038e-53 3.5695e-29 7.59854e-41 0.00135589 3.11432e-227 4.93649e-17 0.00585167 7.51893e-156 2.39609e-21 1.83467e-19 
552 4.87917e-312 1.88622e-253 0 0 8.15435e-202 0 0.00220389 0 0 0 
553 2.57085e-214 2.98737e-95 0.00129714 3.54664e-20 4.19004e-135 0.00104688 5.48363e-55 5.7908e-143 1.75941e-184 3.00324e-95 
554 1.33534e-91 1.86301e-152 0 1.92213e-18 1.37688e-39 8.32994e-266 0.00405758 0 3.92461e-314 4.69623e-190 
555 0 0 0.00346868 0 0 0 0 0 0 0 
556 0 2.09949e-101 8.17675e-309 3.87966e-142 7.82323e-55 0.00725047 3.49996e-193 0 5.98001e-55 5.71992e-20 
557 0.00303741 1.67148e-15 2.54287e-65 6.04383e-06 2.82514e-203 3.62223e-185 2.15e-113 7.81717e-209 3.04297e-72 4.42363e-249 
558 6.5932e-102 8.50249e-235 3.5738e-154 3.39988e-48 2.1306e-216 8.53625e-82 0.00798198 0 3.28482e-05 2.86489e-259 
559 2.26008e-277 0 8.40102e-215 0 0.00472044 0 0 0 0 0 
560 0 0 0.0086717 0 0 0 2.24007e-241 0 9.318e-270 3.3104e-258 
561 0.00934828 4.95715e-145 4.3068e-26 1.81022e-92 7.1314e-131 1.25707e-78 2.53044e-177 6.21595e-202 0.00463703 4.79298e-174 
562 0 0 7.15313e-305 0.00693917 2.19272e-276 0 4.72418e-133 0 0 0 
563 3.26468e-255 0 3.6856e-182 4.18812e-167 1.00735e-267 0.0029234 1.37955e-86 0 1.61942e-253 0 
564 1.42322e-244 3.57082e-147 4.39392e-10 0 5.30607e-214 0.000266694 0 3.5122e-248 0 0.00529285 
565 5.45257e-63 1.11316e-60 2.78595e-310 0.00693721 4.07471e-56 8.90381e-144 1.17908e-122 1.8398e-226 5.18772e-70 1.26306e-101 
566 0 0 3.90363e-113 2.75892e-80 1.42895e-209 0.0029234 1.67177e-195 0 2.54345e-226 7.18647e-234 
567 1.73785e-20 7.94726e-30 1.60727e-22 0.000805692 9.78299e-320 6.99401e-83 3.77886e-141 9.1993e-293 3.65192e-100 8.90935e-119 
568 2.34993e-60 4.64821e-76 0.000109639 0.00210517 2.24393e-131 1.49642e-261 3.86946e-115 0 1.23684e-178 0 
569 3.32612e-85 3.62841e-52 4.94436e-319 1.97626e-323 8.86573e-77 0.00292247 1.39648e-253 7.91083e-168 6.51698e-297 0 
570 0.0328845 0 6.98508e-36 4.24066e-101 6.24511e-182 5.7118e-91 6.91938e-191 4.00385e-214 1.96291e-82 8.53091e-179 
571 0 0 0 0 9.5238e-286 0 0 0 0 0.0224541 
572 0.00348242 0 0 0 1.29353e-229 4.26661e-220 8.9739e-145 0 4.81345e-177 0 
573 1.43709e-08 4.57367e-17 9.08295e-75 2.78912e-156 3.63235e-90 0.00540696 1.97102e-202 5.90273e-185 1.95493e-302 2.08831e-228 
574 4.29633e-229 0.00504247 0 0 1.31241e-296 0 0 0 0 5.43472e-323 
575 5.74296e-246 3.5422e-94 1.57911e-149 0.00126093 0 0 1.05789e-53 1.50704e-266 4.3487e-29 9.32484e-151 
576 2.15819e-44 1.03732e-65 1.93048e-63 3.85533e-18 8.61917e-99 0.0152517 1.10389e-10 4.1e-159 1.32145e-06 8.48712e-192 
577 6.55427e-282 0 1.26717e-261 0.000213519 7.73623e-319 0 0 3.27496e-233 5.16052e-314 0.00162573 
578 0 0.018489 0 0 0 4.47366e-280 0 0 0 0 
579 1.07595e-97 5.10098e-43 1.80122e-08 1.28898e-282 2.23494e-05 2.63983e-93 7.34531e-203 0 0.00377267 0 
580 1.73492e-20 8.6023e-30 3.95932e-22 0.000805692 1.13922e-319 1.27157e-82 3.22584e-141 1.49648e-292 1.0283e-99 4.26715e-119 
581 5.07385e-93 0 1.08238e-243 9.78594e-187 0.00157341 9.31789e-167 9.09538e-270 0 2.02812e-288 8.32143e-57 
582 2.05509e-219 0.00925422 0 1.76182e-303 3.34411e-07 6.10071e-258 0 0 3.43547e-312 3.30603e-317 
583 0 1.43226e-268 0 2.05759e-245 1.25275e-207 3.95726e-264 0.00881555 4.4138e-268 1.30898e-206 0 
584 4.20927e-16 3.56291e-34 9.98028e-130 0.00271938 2.42104e-05 2.44279e-51 2.32515e-119 1.145e-191 9.39222e-71 3.41153e-130 
585 3.28533e-151 0 0.00239848 9.11747e-74 3.13396e-82 0.00220108 2.30279e-157 2.91175e-65 1.75101e-37 6.01283e-33 
586 0 0 3.04424e-201 0 0 7.60367e-321 0 0 0 0.0183715 
587 1.53287e-267 0 0.00520302 0 1.74285e-205 0 0 0 0 0 
588 0.00712127 1.91752e-150 3.14287e-07 5.53175e-90 6.49424e-104 3.48971e-05 2.95079e-161 2.8016e-67 8.538e-40 0.0015536 
589 4.87363e-158 3.10495e-306 0 4.39672e-74 0 6.16381e-11 0.00379505 7.33617e-225 6.39392e-117 7.60287e-202 
590 4.50155e-13 2.77288e-25 2.69331e-94 0.000206842 7.01499e-202 0.00307523 1.63839e-07 1.07802e-226 1.59368e-70 2.98031e-201 
591 7.48846e-106 2.58662e-52 0.00437355 1.53108e-167 6.46362e-268 0.00167699 3.8593e-86 0 6.02796e-162 0 
592 0 0 0 0 0 0 0 0.0366746 0 0 
593 3.23025e-93 4.59788e-20 0.00222029 7.7793e-67 4.89111e-210 0.00168128 1.36684e-107 0 3.38112e-151 3.86261e-07 
594 2.03558e-242 2.63759e-107 0 5.14188e-301 0.00157348 1.00881e-255 0 0 2.80511e-311 0 
595 0.0157884 0 0 0 0 8.28605e-09 1.28363e-283 0 0 0 
596 7.16537e-132 0.0376236 1.30479e-131 2.0493e-94 0 1.69354e-86 8.30439e-119 0 1.79488e-280 9.59771e-16 
597 1.97672e-154 4.38186e-202 3.14114e-199 0.00181941 8.26e-208 0 8.11462e-138 1.16013e-139 1.84829e-11 0 
598 1.8769e-78 5.91402e-111 0.00135592 6.0693e-95 4.64161e-81 1.56403e-35 0.000564556 9.79479e-07 1.59803e-37 0.000105893 
599 1.00945e-232 1.29394e-246 5.66928e-201 4.05316e-305 3.07768e-220 2.96285e-316 5.69703e-203 0 0.0050055 0 
600 0 0 0 0 0 0 0 0.0366746 0 0 
601 9.87659e-175 4.12039e-105 6.67399e-86 4.02686e-15 9.35272e-215 0.00543377 2.35213e-70 2.74902e-162 3.33883e-19 5.5323e-240 
602 1.43855e-160 0.00336165 3.85217e-193 1.08843e-140 5.80755e-256 1.05227e-211 7.55538e-202 3.13073e-278 1.53981e-173 3.10695e-185 
603 1.73215e-29 0 3.63939e-219 1.22702e-253 0.00155794 3.13908e-267 2.47097e-201 0 2.90614e-261 2.14586e-157 
604 1.87383e-241 1.12358e-106 0 4.70664e-300 0.00157348 5.70007e-255 0 0 1.14467e-309 0 
605 0 7.46186e-182 3.46102e-193 2.6887e-05 1.49643e-246 3.98896e-234 7.74071e-09 7.76084e-46 5.04039e-128 0.000828599 
606 7.93613e-64 0.00254029 0.00263277 5.51456e-140 2.12727e-149 4.32944e-98 2.54559e-202 3.85167e-277 1.91019e-150 2.53488e-186 
607 0 2.13229e-175 3.44364e-321 2.72781e-234 0 0.0029234 3.02504e-160 0 1.4815e-151 0 
608 0 0 0.00346868 0 0 0 0 0 0 0 
609 0.00348242 0 0 0 7.41098e-323 0 0 0 0 0 
610 1.68572e-245 0 0 0 0 0 0 0 0 0.00612383 
611 0.00522362 3.41545e-262 0 0 0 0 0 1.39084e-240 0 0 
612 0.0137053 8.29735e-113 1.22139e-25 3.39153e-48 7.10738e-132 8.43341e-79 1.1285e-46 7.68417e-202 4.14667e-72 4.21463e-175 
613 6.30235e-246 0 0 0 0 0 0 0 0 0.00612383 
614 2.25979e-206 9.02105e-93 1.44187e-60 0.00252264 4.16826e-255 3.79753e-48 7.73062e-162 5.76009e-216 9.58719e-142 4.7071e-224 
615 2.26093e-11 0.0202262 1.14748e-16 1.87129e-154 1.89168e-210 4.56578e-68 3.51688e-219 2.36708e-262 4.0413e-155 3.53425e-30 
616 1.14539e-233 0 0 1.02041e-136 0 1.54407e-155 0.00330583 0 0 0 
617 4.22981e-309 0 9.26203e-114 2.70843e-81 0.00311949 0.000819664 7.88409e-196 0 2.17037e-227 1.15961e-234 
618 2.23796e-233 0 0 1.37426e-136 0 1.17427e-155 0.00330583 0 0 0 
619 0.00744816 6.21496e-109 3.22624e-22 2.46592e-07 3.89251e-25 5.80025e-14 0.000403048 1.61196e-161 3.75078e-26 1.01313e-39 
620 7.71303e-14 0 4.88857e-15 3.06817e-17 5.33105e-169 2.93531e-180 0.00252454 6.92855e-214 0.00936631 1.79897e-131 
621 1.17758e-307 1.19643e-253 0 0 0.000776621 4.7242e-262 0.00316304 0 8.39912e-323 0 
622 3.35926e-54 0.0102254 2.80785e-221 7.21579e-21 3.05895e-180 7.43084e-290 1.32554e-179 1.07264e-148 3.42171e-139 4.51366e-108 
623 6.94639e-63 0.00791445 3.41707e-227 1.55498e-28 4.69576e-188 3.78464e-290 1.48236e-185 2.75685e-156 2.68572e-142 3.50076e-115 
624 2.66402e-29 1.32353e-14 2.04257e-27 0.0167959 8.72637e-163 1.42349e-12 1.33026e-15 9.61076e-46 3.59611e-110 2.34762e-104 
625 0 0.018489 0 0 0 6.11458e-280 0 0 0 0 
626 0 0.0180737 2.5945e-17 1.56564e-34 2.93884e-153 1.36904e-148 4.38543e-106 4.99444e-163 0 4.47235e-149 
627 0 0 0 0 8.35541e-304 0.0190021 0 0 9.61882e-318 0 
628 0 0 8.68116e-305 0.00693917 1.20697e-276 0 4.583e-133 0 0 0 
629 6.87384e-164 4.84852e-62 1.25094e-148 4.85303e-73 8.63226e-171 0.00536086 3.84307e-12 4.93056e-168 0.000461043 4.45411e-104 
630 1.224e-06 3.60039e-11 7.76872e-95 2.89663e-07 6.92814e-50 1.29127e-07 4.75791e-17 6.08536e-165 0.000546781 6.38734e-28 
631 0 0 0.00346868 0 0 0 0 0 4.47163e-172 0 
632 1.05404e-214 0 3.4037e-25 0.00434881 2.55269e-166 1.65319e-101 1.19464e-99 1.09386e-110 5.49776e-84 3.54079e-08 
633 0 0 4.36256e-261 0 0 0 0 0 0 0.00408256 
634 1.47921e-160 0.00336165 9.30615e-193 1.43862e-140 1.2237e-255 5.40163e-212 4.22401e-202 2.86487e-278 1.18192e-173 2.05045e-185 
635 6.82945e-315 0 1.43694e-202 0 3.26696e-06 0.0156882 0 0 4.41691e-308 9.92984e-06 
636 3.67419e-121 3.04617e-105 6.93071e-15 3.57635e-08 1.10627e-105 2.1428e-97 2.87373e-24 5.4635e-73 0.00869268 7.70109e-12 
637 6.98862e-41 1.12713e-56 0.028761 2.98709e-19 1.26821e-314 1.3253e-265 7.58767e-125 2.47587e-224 1.06245e-143 1.4451e-137 
638 0 0 0 0 0 0 0 0.0366746 0 0 
639 0.00103521 5.26102e-36 0 0 5.16195e-90 2.25186e-14 0 0 0 0 
640 0.00129574 5.55662e-83 0.00132196 9.22444e-179 4.77192e-145 4.29193e-54 0 3.30298e-261 2.11628e-197 4.2258e-21 
641 0.00348242 0 0 0 2.56189e-230 1.23846e-219 1.04044e-144 0 3.20987e-177 0 
642 9.14436e-106 0 1.82315e-18 6.0477e-168 2.03914e-101 9.00875e-69 2.69575e-57 9.40901e-164 1.51675e-86 0.0235707 
643 7.07677e-83 2.16531e-109 7.73756e-06 0.00294692 1.19748e-10 5.57687e-42 2.96972e-80 3.6134e-14 1.20045e-219 5.37719e-42 
644 2.46193e-287 9.52801e-238 1.01347e-201 1.19105e-179 0 2.45497e-175 0.00220389 0 8.30919e-144 1.12737e-288 
645 6.31099e-24 5.91908e-112 0.00785201 6.60222e-12 4.41691e-95 1.10154e-07 3.26507e-84 9.9715e-155 0.00158822 7.92937e-45 
646 8.10699e-13 0.00504733 1.75053e-32 2.3873e-13 2.8755e-87 0.000701387 7.27354e-148 1.66277e-178 2.26045e-107 3.47171e-127 
647 3.96688e-164 1.52052e-145 0 8.2364e-70 1.29849e-166 0.00793817 1.07824e-13 4.04697e-163 2.28779e-108 1.29888e-104 
648 7.28522e-78 2.57602e-05 1.48479e-07 1.2341e-34 6.03578e-10 2.69442e-05 1.59261e-30 2.19437e-233 0.00155109 7.42872e-11 
649 0.00250536 0 1.42136e-238 6.28435e-25 3.75187e-05 1.48527e-161 2.3599e-107 0 4.41792e-190 6.39382e-57 
650 0.00522362 5.60025e-267 0 0 0 1.15681e-209 0 0 8.3114e-156 0 
651 0.0104472 4.16891e-56 0 4.40245e-315 4.18455e-106 2.80238e-101 0 0 6.05695e-243 7.27627e-153 
652 2.60913e-314 0 0 0 0.00786741 1.28177e-269 0 0 0 0 
653 0 0 0.00346868 0 0 0 0 0 0 0 
654 0.00471468 4.11199e-53 2.86746e-270 3.20478e-105 2.37203e-107 0.0111532 4.03858e-108 5.21801e-20 3.4929e-53 1.98637e-06 
655 7.88259e-17 0 8.2637e-55 0.00505323 1.01353e-13 3.29153e-14 3.17909e-180 1.23137e-120 3.35185e-286 3.04692e-67 
656 2.19421e-277 0 1.59468e-214 0 0.00472044 0 0 0 0 0 
657 0 0.013086 0 9.78102e-320 2.1246e-304 0.0144459 0 0 8.25346e-316 0 
658 0.00432816 1.13585e-33 2.53205e-05 1.10385e-21 2.93075e-84 2.80903e-10 2.36734e-148 3.09399e-176 6.75498e-129 1.09387e-128 
659 1.01796e-228 0.0100849 0 0 1.46344e-296 0 0 0 0 4.44659e-323 
660 9.43746e-312 2.94413e-253 0 0 2.4901e-201 0 0.00220389 0 0 0 
661 0 0 0 0 6.68299e-287 0 0 0 0 0.0142889 
662 2.27056e-13 9.5374e-50 1.1149e-17 3.5668e-41 0.0317756 1.78113e-14 7.17093e-15 4.58376e-18 1.05006e-55 6.55358e-05 
663 2.3917e-167 0 0 0 0 0 0.00220389 0 0 7.20184e-191 
664 6.19208e-77 0 1.39734e-15 3.98027e-11 2.01708e-91 7.05355e-15 6.22729e-31 5.90079e-78 0.0227992 4.55314e-11 
665 5.29007e-312 2.35388e-253 0 0 2.49854e-202 0 0.00220389 0 0 0 
666 1.59263e-233 0 0 1.34892e-136 0 5.94893e-156 0.00330583 0 0 0 
667 1.11971e-10 0.000761998 1.29214e-198 7.92408e-21 0.00543372 2.08413e-39 8.04696e-24 2.09184e-140 8.33533e-11 1.44031e-183 
668 5.45494e-83 6.49166e-11 5.03936e-158 2.26994e-08 1.6266e-101 0.0150752 4.93528e-08 3.87419e-144 4.08108e-73 9.79854e-185 
669 4.12156e-87 0.00253092 8.26339e-245 9.97815e-05 3.73493e-82 6.74369e-132 3.0861e-135 1.54013e-216 6.95862e-94 1.65151e-87 
670 3.0327e-85 3.17108e-52 0 0.00126163 2.50543e-81 2.24265e-131 1.4497e-136 3.64105e-217 4.78791e-95 3.09248e-86 
671 0 5.14636e-98 0 0 3.83117e-286 0 0.00330583 7.04694e-310 1.09338e-235 1.13354e-136 
672 1.68441e-85 8.73559e-52 0 0.00126163 1.89485e-81 5.98526e-132 1.46053e-136 6.32312e-217 1.20636e-94 1.13857e-86 
673 0 1.53407e-175 1.31421e-321 9.95948e-236 0 0.0029234 1.81185e-160 0 1.25229e-151 0 
674 0 0 0.00346868 0 0 0 0 0 0 0 
675 1.12141e-24 1.88027e-144 0.00564429 1.10925e-71 5.74545e-96 0.00758965 3.19112e-08 1.4979e-160 5.28561e-67 1.41112e-45 
676 5.0358e-53 5.25239e-18 2.59917e-197 2.50594e-20 1.15767e-179 6.76655e-305 1.42726e-182 2.27518e-148 2.49823e-144 0.0057084 
677 0.00901831 1.15355e-31 1.90808e-125 1.28986e-15 3.89501e-152 2.2592e-88 5.41291e-22 2.02106e-147 0.00970069 2.10252e-13 
678 1.60375e-185 3.47077e-159 1.2025e-11 4.61058e-20 1.41675e-188 2.32882e-08 0.000354978 5.96878e-146 0.00494182 6.30835e-194 
679 4.69856e-321 0 3.87347e-321 1.94832e-216 0 0 5.22925e-247 0 0.0050055 6.8355e-289 
680 0 0 0 0.0018925 5.22699e-216 2.13e-141 5.92321e-184 0 2.1185e-108 0 
681 3.64805e-151 6.58594e-165 8.95348e-133 6.42708e-42 0 0.00168128 0.00239283 3.75103e-313 1.1353e-127 4.00818e-141 
682 1.07068e-245 0 0 0 0 0 0 0 0 0.00612383 
683 2.08904e-245 0 0 0 0 0 0 0 0 0.00612383 
684 4.86194e-248 8.2711e-150 8.5567e-12 0 2.8135e-216 0.0045642 0 1.18912e-251 0 7.38986e-149 
685 1.2401e-321 0 2.6729e-321 1.00212e-216 0 0 1.70994e-247 0 0.0050055 2.63209e-289 
686 8.57633e-09 1.17196e-07 1.50366e-05 1.55502e-18 2.77015e-06 6.22306e-20 1.09654e-17 1.02659e-30 4.32749e-10 8.23247e-09 
687 6.10564e-21 4.10149e-36 0.000616156 3.29669e-14 1.7686e-97 1.594e-86 9.84919e-123 1.05771e-62 0.00201066 2.86573e-101 
688 1.11938e-314 0 0 0 0.0039337 4.32905e-270 0 0 0 0 
689 1.87847e-06 4.32505e-30 0.00141235 1.29185e-45 3.83549e-126 1.70752e-79 0.00472152 0 3.08534e-09 1.411e-15 
690 5.24122e-92 0 4.03851e-243 9.97193e-186 0.00157341 9.05906e-166 1.25814e-269 0 4.42026e-288 3.18613e-56 
691 7.54877e-127 1.51411e-200 5.69797e-207 1.15241e-13 1.43521e-30 4.9603e-107 0.00022587 1.5283e-226 0.00212577 9.21896e-12 
692 2.59717e-108 6.43792e-141 1.88053e-125 1.11579e-284 0 1.90119e-195 0.0055097 0 1.36571e-156 0 
693 0 0.00336127 1.01416e-171 3.05802e-95 0 0 1.05762e-62 2.6605e-147 0 2.6019e-249 
694 3.36445e-29 1.85675e-186 7.83936e-289 2.43155e-260 1.86911e-21 3.0758e-206 0.0128085 5.47937e-114 1.08189e-185 6.39445e-121 
695 0.00348242 0 1.55726e-107 6.66442e-289 0 0 3.60641e-266 1.93359e-93 0 1.71689e-275 
696 7.4653e-262 7.15272e-145 6.36801e-320 1.41713e-303 0 3.80668e-250 1.54993e-192 0 0.00750826 0 
697 1.26033e-14 0.0169161 0 0 1.11406e-96 4.99299e-20 3.93658e-11 0 0 0 
698 0 0 0 0 0 6.36843e-192 0.00220389 0 3.0238e-306 0 
699 2.10351e-93 0 0.00270367 5.7944e-06 2.21272e-91 2.29811e-54 9.0215e-42 6.3851e-157 2.07616e-74 1.50366e-32 
700 0 0 1.4198e-247 1.77732e-16 1.41629e-168 3.45549e-173 2.20411e-127 0 0.00352661 2.67407e-174 
701 0 0 0.00346868 0 0 0 0 0 0 0 
702 1.20437e-86 1.38122e-51 7.19528e-10 3.01656e-199 2.49358e-69 0.0042919 3.12405e-248 4.39052e-156 7.08876e-104 2.12097e-34 
703 0 0.00336165 2.58597e-254 0 1.62478e-248 9.61131e-298 1.6782e-219 0 4.39911e-147 1.18636e-258 
704 0 5.43945e-58 0 1.31275e-87 0 0.0029234 6.14165e-187 2.59285e-220 5.64138e-316 0 
705 1.7719e-08 1.02485e-07 8.87562e-06 9.48118e-19 8.00143e-06 3.09318e-22 9.15664e-17 5.13059e-31 2.18683e-10 5.08255e-09 
706 0 0 0 1.80359e-220 0 2.38387e-283 1.38782e-245 0 6.87527e-280 0.00408256 
707 8.77675e-11 2.50255e-54 1.20156e-14 2.99804e-14 1.26677e-25 0.0243333 4.07609e-06 1.41462e-32 8.22245e-13 1.49173e-07 
708 1.6682e-11 1.01594e-22 8.89154e-114 7.86693e-08 1.84242e-145 2.67026e-06 1.47716e-34 6.05225e-155 0.00380185 6.4633e-49 
709 6.78918e-228 1.7508e-107 0 2.42259e-221 0.000769254 0.00209506 4.56943e-160 0 8.97337e-299 3.66073e-281 
710 0 0 0 0 0.0110144 0 0 0 0 0 
711 4.37877e-232 4.35985e-246 9.43604e-201 6.65465e-306 4.10477e-220 1.01667e-315 4.5331e-203 0 0.0050055 0 
712 6.58635e-232 1.16609e-227 6.92379e-221 0 0.00157345 8.68563e-160 0 0 7.38939e-166 1.88976e-66 
713 9.29454e-239 0 1.66747e-123 1.79399e-311 0 1.39239e-192 0.00440777 0 1.06597e-154 0 
714 5.1324e-275 0.00211435 1.35391e-241 5.81331e-103 3.73709e-242 4.97697e-288 0.002476 0 2.0554e-147 9.95358e-253 
715 1.10336e-152 3.48742e-06 3.12235e-96 1.0886e-10 1.73733e-175 5.25935e-60 2.55433e-09 4.75526e-162 0.00418081 3.43913e-82 
716 7.7912e-248 1.24312e-149 2.0917e-11 0 7.83164e-216 0.0045642 0 1.5845e-251 0 7.09904e-149 
717 9.27509e-09 1.14157e-191 2.38447e-36 5.53435e-79 0.0261178 1.1759e-199 4.12715e-77 8.9206e-14 2.26084e-54 6.33327e-05 
718 2.57676e-56 2.47667e-11 2.02312e-118 0.000658318 3.48134e-182 2.0106e-76 1.29881e-59 2.79132e-150 3.67639e-35 0.00260977 
719 0 0 4.96294e-114 1.51607e-80 1.14901e-209 0.0029234 9.3661e-196 0 3.1971e-227 5.33233e-234 
720 5.12985e-61 2.95977e-97 1.02303e-06 3.69973e-184 0.00352567 6.02367e-236 0 0 3.92021e-204 0 
721 0 0 0 0 0.0110144 0 0 0 0 0 
722 7.5824e-309 0 0 0 0.00157348 2.16973e-276 0 0 0 0 
723 2.66349e-108 4.39296e-143 8.13993e-240 2.25597e-187 1.98995e-117 4.17288e-65 8.38491e-117 0.0387113 1.66179e-299 1.0375e-63 
724 1.0328e-169 4.9958e-237 0 1.05016e-27 4.40739e-164 0 0.0028027 0 1.68594e-265 7.56432e-181 
725 1.03686e-89 0.0021207 2.0956e-200 1.17406e-180 1.04014e-79 1.99789e-07 0.000959603 1.07292e-171 4.17575e-130 2.43287e-256 
726 4.6431e-31 1.4745e-11 4.04814e-21 9.75258e-42 4.73566e-74 0.000899387 1.03661e-12 2.72026e-222 1.14893e-44 1.9038e-266 
727 2.0152e-25 6.03604e-17 2.68431e-18 1.91167e-07 7.24683e-32 7.08725e-12 0.0323351 5.72382e-62 1.89603e-06 1.35943e-25 
728 6.71385e-07 6.64305e-104 1.05858e-24 1.8935e-19 0.00739682 4.8563e-06 1.50532e-11 4.86282e-18 3.26036e-21 1.63595e-13 
729 0 0 8.67423e-201 5.31249e-52 0 1.37729e-98 0.00220358 0 2.03944e-202 5.1771e-277 
730 5.48461e-05 3.39767e-31 1.63427e-28 1.28662e-26 1.09547e-89 0.0220402 2.25536e-23 9.1734e-19 0.00050694 1.91295e-13 
731 0 0.00336127 4.53989e-172 1.39706e-95 0 0 1.56266e-63 3.91409e-148 0 1.7909e-249 
732 3.56316e-17 8.69861e-149 6.33716e-274 8.72199e-103 4.13861e-13 3.97847e-197 0.00289104 2.3612e-104 1.26052e-171 1.22901e-110 
733 0 0 2.83327e-113 6.55478e-06 1.29732e-190 0.00250913 2.25685e-158 0 2.74284e-107 5.028e-235 
734 0 0 3.83675e-113 1.8287e-80 3.2301e-209 0.0029234 1.54823e-195 0 2.18818e-226 4.83362e-234 
735 0 0 0 0.00504667 4.07466e-266 1.70601e-218 3.27461e-311 0 0 0 
736 2.92437e-87 6.96722e-107 0 2.19096e-46 0.00279955 6.4402e-254 2.79351e-13 0 5.8604e-296 1.6133e-187 
737 1.17116e-167 0 0 0 0 0 0.00220389 0 0 1.54286e-191 
738 2.1063e-21 6.24645e-112 3.3211e-66 1.08347e-224 1.0887e-317 3.71939e-71 2.12047e-256 1.18945e-274 1.62378e-272 0.0161682 
739 7.52526e-149 2.33348e-93 6.75185e-59 0.00189248 2.46144e-255 7.96588e-142 1.50573e-159 1.41737e-163 1.70082e-61 9.11524e-222 
740 3.80132e-18 1.51395e-26 2.88992e-20 4.544e-12 3.49708e-313 2.96336e-84 1.17134e-128 0 0.00209145 3.28686e-106 
741 4.70198e-195 1.02733e-306 1.28001e-69 9.43973e-10 5.71497e-301 4.22754e-85 0.000794895 5.28903e-208 0.00127523 0 
742 4.52828e-200 6.21882e-88 4.79929e-53 0.00126166 3.21184e-251 9.60055e-220 1.37271e-154 2.59321e-210 1.88509e-134 3.48276e-216 
743 1.50652e-68 2.56075e-25 2.08312e-21 7.77717e-05 2.10125e-91 2.24536e-24 7.48737e-23 0.0308551 1.72267e-63 2.35822e-43 
744 3.58349e-229 0.00504247 0 0 1.00933e-296 0 0 0 0 2.96439e-323 
745 6.7769e-05 5.78276e-07 0.00119547 4.71558e-76 4.06153e-11 4.26018e-07 1.08075e-15 2.14282e-145 6.22268e-84 5.31683e-36 
746 7.74036e-146 1.00097e-22 3.23801e-112 7.45756e-15 8.05053e-36 0.00209573 1.99963e-139 1.23099e-254 0.00122391 6.29102e-105 
747 4.08448e-233 0 0 2.81983e-136 0 2.58012e-155 0.00330583 0 0 0 
748 8.62611e-255 0 7.49475e-182 9.33401e-167 7.24129e-268 0.0029234 1.64969e-85 0 1.80309e-253 0 
749 4.08986e-36 5.05205e-24 1.82212e-148 0.00273855 6.90802e-11 1.3687e-07 4.56395e-124 9.90376e-08 1.10809e-53 4.17226e-25 
750 1.67162e-136 0.00305692 2.19728e-135 2.26524e-12 1.51783e-33 3.34569e-41 3.06671e-138 3.39198e-241 2.22205e-64 8.38591e-172 
751 1.12501e-206 1.42117e-91 3.85487e-60 4.39396e-12 2.89144e-256 4.3696e-224 7.64101e-160 2.8358e-216 0.00668526 3.48316e-222 
752 9.79364e-105 1.81166e-23 5.47347e-19 3.44695e-38 0.00740583 5.60601e-34 1.65926e-31 2.9163e-44 1.08654e-111 0.000603137 
753 0.0057061 1.0681e-39 6.26003e-05 2.16718e-26 3.80983e-13 1.05915e-34 0.000349915 3.43606e-234 2.21609e-75 2.04488e-32 
754 0.0110463 3.5567e-133 4.28133e-254 4.91689e-51 1.41196e-33 6.84725e-07 4.31387e-139 0 2.31923e-13 3.28964e-43 
755 6.3008e-246 0 0 0 0 0 0 0 0 0.00612383 
756 7.89665e-18 6.43308e-20 3.22981e-32 0.0348195 3.86744e-40 1.65938e-67 3.37503e-11 5.57216e-51 5.51713e-20 9.65736e-19 
757 0 0 0.0099927 0 0 0 0 0 4.94066e-324 2.01918e-06 
758 9.61499e-132 4.2862e-182 7.22481e-260 6.31946e-93 0 0.0029234 2.23075e-144 0 1.86042e-87 0 
759 0 0 0 0 0.00944089 0 1.14501e-289 0 0 3.60564e-201 
760 1.28158e-05 5.9871e-120 0 0.000858352 2.22203e-213 0 4.33866e-95 0 3.14485e-101 0 
761 1.19678e-283 5.99733e-164 9.97909e-198 6.91701e-175 0 0.00209506 0.00137408 0 2.40735e-125 1.19523e-278 
762 6.27676e-274 2.41333e-149 9.18795e-112 2.20432e-78 1.47793e-208 0.0016812 0.002476 0 5.75751e-221 8.16097e-234 
763 0 0 0 0.00504667 0 0 0 0 0 0 
764 0.00348242 0 0 0 5.43472e-323 0 0 0 0 0 
765 7.71798e-118 1.99487e-86 6.71919e-315 5.92102e-67 2.38238e-180 3.4524e-254 0.00243457 2.52823e-54 3.34454e-06 1.56942e-07 
766 2.60204e-232 1.02969e-226 5.41881e-221 0 0.00157345 1.16857e-159 0 0 1.14645e-165 1.5032e-66 
767 6.57213e-239 0 1.23553e-123 2.75611e-311 0 2.77283e-193 0.00440777 0 5.9968e-155 0 
768 1.88337e-07 1.2242e-29 5.87769e-32 9.94741e-29 0.00755938 7.62961e-28 2.17646e-08 4.4399e-15 1.81032e-17 0.000357921 
769 5.82997e-321 0 0.00181997 4.01905e-217 0 0 3.14751e-247 0 0.00418291 6.29541e-289 
770 0 0 8.56781e-202 0 0 1.55137e-321 0 0 0 0.00612383 
771 0 0 0.00346868 0 0 0 0 0 0 0 
772 3.84571e-209 0 5.35177e-309 0.00504667 5.32079e-165 4.85567e-245 2.14138e-120 0 1.26063e-215 1.5621e-141 
773 2.3986e-248 0 2.92392e-05 2.33818e-164 5.7474e-79 0.00280799 4.86541e-88 6.83416e-159 2.40093e-100 7.32097e-29 
774 0 0 0 0.00126167 5.4183e-216 6.65508e-142 5.16761e-184 0 2.45388e-108 0 
775 4.8764e-162 3.53552e-06 1.58477e-137 3.6237e-50 2.61747e-226 3.18129e-109 0.00973079 3.70123e-64 2.37703e-94 7.42559e-23 
776 1.48639e-311 5.48397e-253 0 0 1.83559e-201 0 0.00220389 0 0 0 
777 1.10409e-08 0.0201157 5.60031e-39 4.23544e-14 3.30149e-27 7.23249e-16 1.19913e-34 7.13124e-15 1.42276e-11 1.98874e-170 
778 2.24306e-321 0 3.20649e-321 5.61763e-217 0 0 3.15274e-247 0 0.0050055 5.13876e-289 
779 1.13594e-146 0 9.24536e-30 1.24977e-201 2.67773e-168 2.09751e-289 4.20336e-05 4.49007e-55 0 0.0113594 
780 0.0119885 0 5.58587e-25 2.20652e-91 2.88474e-131 5.93262e-78 1.27312e-181 4.01484e-201 1.28062e-71 2.02609e-174 
781 3.77754e-05 7.9824e-106 4.21274e-08 2.03287e-13 2.6929e-103 9.78884e-12 1.42186e-26 3.12946e-69 0.000630197 0.000454074 
782 2.51259e-232 2.19668e-246 2.40638e-201 4.77521e-305 1.90749e-220 6.57988e-316 7.42927e-203 0 0.00250275 0 
783 1.42661e-61 0 2.42256e-316 0 0.00689662 0 4.35154e-292 0 1.43229e-184 3.02975e-12 
784 0 0 0 7.5655e-221 1.02235e-266 0 0.00661166 2.87119e-245 8.78451e-196 9.31668e-296 
785 2.88734e-154 1.0477e-93 4.51453e-59 0.00189109 1.61128e-208 3.45141e-226 8.2994e-160 4.5621e-213 4.00727e-46 1.05119e-221 
786 1.55484e-07 3.94608e-116 1.35574e-29 1.78561e-64 8.98867e-23 2.17355e-09 0.000679822 9.65267e-117 0.00267553 2.30888e-09 
787 0 0 6.21086e-200 0 0 5.09876e-321 0 0 0 0.0204128 
788 7.08831e-232 3.35771e-246 6.938e-201 4.43196e-305 1.27295e-220 5.70055e-316 1.15955e-202 0 0.00250275 0 
789 9.82728e-94 0 2.48463e-244 2.55379e-186 0.00157341 2.18388e-166 3.90458e-270 0 6.44621e-289 6.37227e-57 
790 0 0 0 0 0.00944089 0 6.98955e-290 0 0 3.78677e-201 
791 0 0 0 0.00504667 4.42076e-266 2.62749e-218 1.9084e-311 0 0 0 
792 0.0316097 4.97016e-07 3.40311e-36 3.02791e-101 6.52783e-182 1.2973e-90 1.15702e-190 4.1278e-214 1.30774e-82 6.64591e-179 
793 2.1539e-208 2.56559e-106 8.6132e-154 0.00024234 6.05048e-237 0 1.53546e-63 4.17025e-144 0.00750865 3.12309e-155 
794 3.29706e-206 0 1.38062e-278 2.77281e-11 2.14746e-234 0 7.26197e-140 8.53542e-142 0.00917743 9.10527e-282 
795 4.27881e-235 2.5019e-266 1.00432e-202 0.00504667 4.29006e-277 8.37413e-102 6.87562e-154 3.75047e-227 1.71994e-241 0 
796 5.12535e-243 7.81399e-195 0 0 0 0.0029234 1.40117e-320 0 0 0 
797 0.00870604 0 8.60504e-126 1.15856e-307 0 0 2.10542e-285 5.26396e-111 0 1.01093e-289 
798 3.93413e-17 9.84073e-15 1.04454e-13 1.18387e-12 7.02857e-26 3.79039e-09 0.00836589 3.49367e-25 8.02148e-09 3.32062e-12 
799 0 0 2.45392e-199 0 0 6.9021e-321 0 0 0 0.0204128 
800 0.0178433 1.36385e-112 2.90654e-71 2.89699e-41 5.61712e-11 1.44071e-77 2.54944e-68 8.07496e-117 3.52302e-184 6.47608e-38 
801 0.00115239 5.6609e-30 2.68052e-14 4.30195e-26 0.00142357 4.8201e-62 5.65486e-10 1.80916e-122 2.16891e-09 2.26636e-11 
802 1.93323e-131 0 6.32904e-291 8.03431e-18 8.42443e-195 1.65225e-250 5.50092e-22 0 0.0107537 1.60407e-184 
803 8.59293e-247 1.67387e-94 8.07231e-150 0.00126094 0 0 2.83248e-54 3.67632e-267 6.53513e-30 1.51201e-151 
804 0.0204793 8.32311e-137 8.51616e-310 3.35868e-271 3.1279e-255 4.54297e-316 6.45624e-17 0 1.33202e-125 0 
805 0.00265105 0 2.11448e-308 0 4.73108e-306 0 0.00137411 0 1.83888e-316 2.11847e-186 
806 0 0 0 0 0.0110144 0 0 0 0 0 
807 0.0116392 1.42969e-134 3.2256e-282 1.33152e-18 2.80289e-32 6.33738e-196 5.76142e-108 0 6.31753e-116 2.2133e-103 
808 1.3225e-314 0 0 0 0.0039337 9.9435e-270 0 0 0 0 
809 0.017412 9.7522e-55 0 4.86256e-314 4.35186e-110 7.40599e-105 0 0 4.12747e-241 1.00696e-151 
810 4.71922e-15 6.10646e-17 7.96497e-29 0.000575732 2.01387e-105 1.43285e-44 0.000644176 4.2771e-105 2.30641e-07 2.35192e-82 
811 1.15872e-254 0 0 0 0 0 0 0 0 0.00408256 
812 0 0 0 2.04941e-173 7.98911e-219 0 0.00220389 3.62345e-306 0 0 
813 2.99652e-78 6.72025e-114 5.23205e-213 2.08484e-158 4.0408e-87 0.00251295 1.01029e-87 0.00112445 2.49609e-153 4.85295e-33 
814 0 0 0 0 6.72734e-287 0 0 0 0 0.0142889 
815 0 0 0 0 0 4.45289e-285 0 0 0.00250275 0 
816 2.98197e-09 4.13452e-56 2.99706e-23 4.22311e-172 0.00110976 0.0161159 9.58746e-61 2.7645e-161 1.16444e-90 8.52704e-47 
817 2.02263e-106 2.49825e-49 9.23579e-06 5.86067e-57 3.75926e-297 5.31242e-100 2.1749e-06 4.50689e-117 0.0116347 6.25013e-17 
818 2.02045e-18 4.61146e-16 1.32938e-30 3.33146e-06 1.25622e-06 1.64864e-19 1.10687e-07 2.32343e-15 2.03166e-12 1.54478e-11 
819 0.0104472 4.24262e-56 0 4.27241e-315 3.33547e-106 3.78457e-101 0 0 5.0821e-243 1.03781e-152 
820 2.3083e-64 1.06329e-50 1.21137e-214 4.07208e-162 4.26591e-74 0.00104884 2.21405e-88 0.00161686 9.0656e-270 1.10056e-35 
821 1.62869e-208 1.11602e-237 0 2.4603e-182 7.02146e-253 0.00419013 2.57264e-230 0 0.00336341 3.13976e-250 
822 5.886e-80 2.09965e-19 2.13588e-119 1.26401e-08 4.16592e-91 2.87701e-34 8.122e-88 7.4317e-06 1.87685e-110 0.00510972 
823 1.31178e-160 0.00336165 6.97239e-193 2.44143e-140 9.60451e-256 7.83635e-212 1.04818e-201 5.60314e-279 1.80139e-173 3.4069e-185 
824 0 0 3.48291e-08 0 0 1.9516e-286 3.37801e-275 0.00279397 0 6.86771e-157 
825 0.00223512 1.05292e-39 0 7.02743e-11 3.54245e-321 0.0016832 1.31257e-283 2.64439e-297 1.7388e-111 1.96431e-274 
826 8.47097e-262 8.91849e-145 1.14579e-319 1.64589e-303 0 4.2177e-250 2.36443e-192 0 0.00750826 0 
827 0.000993722 6.1097e-98 1.6858e-101 1.63637e-240 4.58547e-25 2.58292e-269 0.000984286 0.0016695 1.97262e-233 2.73578e-131 
828 2.46988e-119 2.51104e-81 4.3465e-15 1.02147e-09 3.85796e-23 1.14681e-140 0.00191542 0.000757848 5.24236e-69 6.86763e-129 
829 1.30138e-12 1.47067e-127 1.43773e-321 4.84502e-10 1.13662e-219 0 1.31206e-101 0 0.00418291 1.34888e-286 
830 5.38299e-134 2.43725e-34 1.62879e-128 0.00462878 0 2.81374e-90 5.78353e-119 0 1.11764e-288 4.65533e-16 
831 1.57864e-287 2.32685e-238 2.25471e-202 3.53736e-180 0 8.73367e-176 0.00220389 0 2.65696e-144 1.00054e-288 
832 1.19564e-102 0 2.11121e-155 6.6714e-25 1.4771e-307 7.39751e-83 0.0105733 0 1.09687e-69 2.90917e-239 
833 2.45386e-77 2.79998e-114 0.00010997 5.33027e-146 1.22709e-75 4.84429e-32 0.00138012 0.000235993 2.2283e-75 1.90782e-19 
834 2.78329e-163 2.35865e-191 4.23981e-217 1.56541e-157 3.56414e-24 1.05004e-219 1.38474e-176 0.0042428 7.28932e-96 0.000780536 
835 0.0136052 1.16959e-129 1.10166e-283 8.95229e-14 4.81444e-33 2.08354e-197 1.20882e-103 0 5.09658e-111 4.58376e-105 
836 7.02158e-226 4.56897e-104 2.76824e-159 2.88184e-14 6.83521e-228 3.24068e-227 4.89896e-63 4.94532e-273 0.00669287 1.7427e-160 
837 2.06809e-24 4.76605e-21 8.53864e-72 0.0356555 4.12242e-55 2.03325e-23 1.01049e-09 2.25392e-52 5.56904e-16 2.94542e-119 
838 0 0 0 0.00504667 0 0 0 0 0 0 
839 3.78475e-132 1.46189e-182 3.34563e-260 4.07726e-93 0 0.0029234 6.36957e-144 0 1.66579e-86 0 
840 0 0 0 0 0 0 0 0.0366746 0 0 
841 0.0003023 0 0 0 2.54231e-230 9.18601e-218 3.04053e-145 0 0.00918783 0 
842 0.0156709 0 0 2.99759e-286 7.78736e-252 0 0 0 2.60512e-122 0 
843 1.17485e-180 6.81067e-115 0.0041479 7.55455e-27 5.20016e-13 5.83068e-60 0.00548692 1.01301e-165 3.4631e-26 1.50495e-71 
844 1.77808e-261 7.86504e-145 5.56639e-191 2.26044e-303 0 4.32487e-250 2.72313e-192 0 0.00709658 5.40526e-06 
845 0 0.018489 0 0 0 5.00095e-280 0 0 0 0 
846 0 5.75464e-174 4.11273e-312 0.00421027 2.22245e-266 1.67686e-05 6.04294e-153 0 3.37822e-138 1.97626e-323 
847 2.69109e-232 5.05577e-246 5.64029e-201 4.85427e-305 7.00216e-220 5.55729e-316 6.23756e-203 0 0.0050055 0 
848 2.26897e-06 3.14423e-110 2.98987e-111 4.02653e-152 6.74312e-64 0.0151812 1.04729e-199 6.78582e-219 4.89058e-64 3.40761e-28 
849 0.00348242 0 0 0 3.95253e-323 0 0 0 0 0 
850 0 0.018489 0 0 0 7.77428e-280 0 0 0 0 
851 1.16876e-19 6.9009e-16 3.06365e-22 0.0109782 4.97126e-55 6.01577e-15 1.45591e-05 2.84138e-50 3.48016e-09 8.84553e-30 
852 5.8811e-256 0 1.867e-182 9.81174e-168 1.17914e-268 0.0029234 3.68143e-86 0 7.26068e-254 0 
853 2.58072e-13 5.17528e-26 4.55774e-30 8.21448e-16 1.58324e-32 0.00127502 0.00999817 2.2905e-22 2.21763e-15 7.16413e-07 
854 7.56471e-10 1.26736e-11 6.70194e-14 0.00633939 1.67312e-39 8.86469e-11 3.7146e-07 1.25996e-37 1.03412e-12 1.23988e-56 
855 3.75499e-88 3.70736e-145 7.10086e-129 1.3746e-13 2.63245e-105 0.0262809 4.58116e-08 1.64023e-148 0.000106688 5.06768e-195 
856 5.95463e-73 0 2.38599e-283 1.35878e-14 2.83469e-153 0 1.37459e-124 1.08711e-144 0.0154625 1.37119e-54 
857 3.05774e-44 2.3333e-18 2.46445e-33 3.64849e-40 1.04293e-34 5.53852e-91 0.00619442 3.07649e-295 9.21616e-57 3.12578e-139 
858 0 0 2.89314e-186 1.07284e-85 0 5.81971e-284 3.96742e-27 7.57376e-64 1.95439e-293 0.00780958 
859 8.75021e-141 3.07094e-23 3.03347e-140 0.000596604 3.43121e-32 5.15569e-41 3.04515e-137 2.01896e-249 2.28247e-62 5.59108e-127 
860 0 0 0 0 0.0110144 0 0 0 0 0 
861 1.21929e-101 0.00127589 4.08748e-126 3.96341e-09 4.03949e-146 0.00339201 1.0381e-24 6.93952e-46 1.78613e-107 6.44685e-15 
862 0.0157884 0 0 0 0 1.13154e-08 2.73971e-283 0 0 0 
863 5.0148e-314 0 4.7909e-256 0 0.00352567 2.59832e-269 0 0 0 2.88202e-05 
864 0 0 0 1.13401e-220 0 2.44017e-284 9.09374e-246 0 2.19226e-280 0.00408256 
865 2.10279e-309 0 0 0 0.00157348 1.04285e-276 0 0 0 0 
866 4.69649e-39 3.76722e-18 0.00620675 1.47401e-25 4.45621e-100 5.64907e-81 2.20109e-20 8.39341e-70 7.53765e-40 2.16174e-125 
867 0 0 0.00346868 0 0 0 0 0 8.26168e-172 0 
868 2.1964e-156 1.33176e-198 7.96714e-204 0.00125885 7.38218e-208 0 2.05851e-223 7.73426e-233 1.77241e-41 0 
869 2.77808e-96 1.35426e-125 6.18965e-300 1.29138e-25 4.28849e-163 6.23698e-313 0.00167319 0 2.69393e-186 0 
870 1.09164e-05 1.64324e-120 0 0.000859383 2.32686e-213 0 5.84308e-96 0 1.27572e-101 0 
871 1.15044e-161 2.20419e-05 2.56303e-140 5.37785e-50 9.30928e-226 5.28348e-109 0.00902858 1.29777e-144 5.40634e-94 4.05498e-152 
872 1.72847e-156 2.20887e-301 0 2.56963e-79 0 3.74387e-07 0.00152406 3.25236e-240 3.97219e-111 5.18882e-197 
873 2.65605e-156 1.49884e-301 0 2.34952e-79 0 9.55129e-07 0.0015236 8.30039e-240 1.1606e-110 7.38111e-197 
874 0 0.00336165 4.15607e-254 0 2.75943e-248 2.8815e-297 9.97745e-220 0 2.18046e-147 1.59421e-258 
875 5.33896e-85 1.65532e-51 0 0.00126163 5.00555e-81 3.77706e-131 2.16419e-136 3.98437e-216 3.46906e-94 2.17427e-86 
876 7.32466e-312 2.89163e-253 0 0 1.5327e-201 0 0.00220389 0 0 0 
877 3.71061e-218 0 6.07245e-30 7.53624e-202 2.30397e-170 4.61176e-290 8.87778e-279 0.0341768 0 0.000724674 
878 0 7.51469e-114 1.51852e-16 0.00467521 6.79605e-154 6.2597e-159 1.12807e-108 9.06672e-170 0 1.12807e-153 
879 2.42418e-132 5.64953e-176 3.74149e-195 4.26338e-93 6.84889e-219 0.00124918 1.27223e-143 0 0.00418291 0 
880 1.56131e-219 6.29877e-244 8.14584e-190 1.7703e-32 3.83798e-217 1.21545e-183 3.74447e-153 0 0.00817192 0 
881 2.53017e-168 0 0 0 0 0 0.00220389 0 0 8.60327e-191 
882 2.51212e-25 1.86391e-17 2.31685e-19 3.40255e-05 2.23588e-30 1.52198e-12 0.025893 2.91099e-60 6.60616e-08 7.99905e-27 
883 2.9968e-155 4.65701e-25 0 3.70404e-06 0 0.00251291 1.04928e-186 2.19956e-218 4.43876e-103 1.65334e-274 
884 0 0.00336165 7.91111e-255 0 2.90049e-248 2.73979e-297 4.34229e-219 0 3.72425e-147 1.09655e-258 
885 0.0157884 0 0 0 0 8.5783e-09 1.63021e-283 0 0 0 
886 0 2.39423e-175 4.496e-321 3.26679e-234 0 0.0029234 5.70108e-160 0 1.01216e-151 0 
887 0 0.00336127 7.29337e-172 3.85584e-95 0 0 1.14634e-62 2.37351e-147 0 4.72177e-249 
888 3.04122e-155 2.14282e-25 0 3.90007e-06 0 0.00251291 7.44111e-187 9.89232e-219 8.10434e-103 2.14403e-274 
889 8.23739e-18 1.62294e-29 1.99939e-73 2.59345e-14 1.25098e-63 1.97899e-09 6.52199e-90 1.57681e-152 0.0224243 4.42343e-29 
890 5.8887e-168 2.38515e-193 5.16081e-208 7.80823e-19 0 1.35694e-156 0.0029197 3.10282e-151 3.53065e-16 0.00116447 
891 0.000946688 2.03753e-32 2.29366e-130 1.13674e-08 2.44422e-100 1.38242e-12 5.51029e-16 8.50956e-11 5.99456e-46 3.18412e-111 
892 0 0 0 0 4.70562e-287 0 0 0 0 0.0142889 
893 5.67975e-72 0 0 7.64441e-57 2.37542e-151 0 3.63371e-129 0 0.0112623 4.77468e-53 
894 0.00348242 2.39264e-211 6.63077e-116 0 7.84045e-307 5.85574e-87 8.69551e-218 1.46004e-235 1.7717e-191 0 
895 8.4498e-10 4.5543e-23 7.63292e-20 5.11141e-17 0.0308669 1.19619e-11 2.99237e-25 5.43084e-16 1.34277e-19 1.35359e-07 
896 6.66809e-07 2.55843e-107 0 5.0205e-289 0.000770802 8.34757e-89 5.91001e-320 0 3.65942e-299 3.04722e-213 
897 4.06598e-272 9.82953e-153 5.52675e-303 0.00568453 3.61523e-276 0 7.23957e-06 0 0 0 
898 0.00192423 1.80546e-18 5.03086e-206 1.26598e-13 1.1115e-62 6.16059e-42 6.08972e-21 2.77651e-149 0.0205667 6.07101e-109 
899 5.07766e-242 3.73593e-107 0 2.32123e-300 0.00157348 1.84334e-255 0 0 6.55803e-310 0 
900 5.08645e-06 6.51708e-27 3.52047e-144 2.6028e-07 1.3276e-26 2.53813e-41 5.54675e-144 2.43063e-216 0.00088502 2.88851e-205 
901 2.51964e-178 1.06909e-264 1.47829e-203 0.00251525 1.65312e-276 3.15458e-81 0.000383661 1.07819e-226 1.28664e-07 0 
902 1.85966e-28 1.41014e-31 1.2481e-09 2.98941e-11 3.29151e-34 3.1482e-14 0.00687024 6.81435e-29 0.001576 3.98879e-98 
903 0 0 0.00346868 0 0 0 0 0 0 0 
904 0.00314433 4.07828e-07 1.47123e-205 6.10488e-15 2.9241e-17 6.09651e-05 2.31757e-146 1.11894e-209 1.17705e-49 1.58931e-48 
905 0 0 0.00346868 0 0 0 0 0 0 0 
906 1.02199e-224 2.22152e-66 0 8.25113e-97 0 0.0058468 6.7781e-195 4.06195e-229 0 0 
907 1.60029e-160 1.22348e-37 6.97874e-158 0.00251762 0 6.22355e-82 2.69563e-63 3.02019e-273 8.22465e-39 8.19447e-159 
908 0 0.00589249 0 9.16217e-170 6.3225e-251 1.15799e-223 3.13699e-212 3.49056e-259 0.000873032 2.90425e-250 
909 5.19874e-242 3.95447e-107 0 1.78332e-300 0.00157348 2.55158e-255 0 0 4.20666e-310 0 
910 0 6.49402e-58 0 1.41631e-87 0 0.0029234 6.90477e-187 2.19871e-220 1.24889e-316 0 
911 1.52172e-321 0 3.4881e-321 6.21904e-217 0 0 1.67527e-247 0 0.0050055 2.15755e-289 
912 7.82968e-05 2.6046e-274 4.78447e-122 2.13998e-133 3.15064e-15 0 2.18288e-291 0 3.22689e-295 0.00162565 
913 0.00961609 5.47591e-151 5.29583e-122 3.60477e-318 4.81864e-111 0.00049511 8.70928e-150 7.79709e-232 1.32158e-177 1.20411e-213 
914 1.3541e-08 6.89553e-15 3.11376e-14 5.65109e-08 3.46864e-09 2.93223e-10 6.27112e-07 1.52255e-18 4.52511e-11 4.27407e-12 
915 2.10988e-147 4.42812e-32 4.01574e-143 3.32691e-19 9.7826e-33 0.0104822 2.09746e-96 7.39438e-253 1.20087e-52 2.77951e-23 
916 1.06731e-38 0.008837 1.45122e-34 1.37153e-12 2.09825e-90 3.71332e-05 8.1339e-28 3.47304e-134 2.91435e-52 1.32765e-178 
917 1.24139e-277 0 7.1321e-215 0 0.00472044 0 0 0 0 0 
918 2.31063e-133 0.00243909 1.08771e-14 4.89291e-84 1.57439e-137 0.00580271 2.41031e-154 2.67221e-248 3.56389e-95 3.45781e-59 
919 0.00181914 5.24091e-138 2.02872e-101 5.95428e-68 5.52576e-25 1.20184e-09 4.89503e-61 0.00284808 2.04444e-184 3.42945e-96 
920 1.37372e-68 9.93336e-131 1.21589e-301 2.92119e-12 0.0031195 1.46308e-27 1.82115e-184 9.32902e-134 2.98897e-114 2.14719e-179 
921 6.76272e-15 7.38098e-10 5.27152e-26 0.00276696 9.86009e-48 1.49713e-10 0.000188957 1.04267e-43 8.90141e-94 3.43777e-28 
922 0 3.95253e-323 8.25838e-210 2.58568e-77 3.55984e-306 6.73211e-229 5.31862e-18 1.67349e-52 8.54199e-101 0.00371434 
923 1.16895e-57 1.37337e-107 1.23758e-57 7.29745e-11 0.00116694 1.52593e-10 1.44901e-78 1.34165e-195 4.45403e-31 1.1323e-134 
924 2.15461e-11 4.82791e-31 5.40967e-18 2.66773e-23 0.0395273 1.14327e-14 3.43501e-80 1.49285e-16 4.72263e-21 1.05726e-05 
925 1.57437e-164 1.00875e-107 0 1.18401e-05 0.00090704 6.0048e-251 5.04656e-308 0.000414026 2.04361e-153 2.95721e-230 
926 0.00672616 2.23892e-103 1.56657e-19 0.000199762 1.4805e-54 4.04126e-10 1.86413e-06 1.3438e-149 6.97496e-39 2.79051e-108 
927 0.00522362 2.04417e-262 0 0 0 0 0 2.77998e-240 0 0 
928 0.00327273 7.67245e-11 0 0 0 3.62804e-59 0 0 0 0 
929 1.5332e-86 1.80386e-95 4.89849e-258 3.98057e-92 0 0.00250914 0.000279568 0 3.19866e-86 0 
930 8.00257e-20 1.75663e-37 1.77255e-20 1.36581e-14 6.52779e-319 1.76189e-291 1.22592e-141 0 2.32104e-123 0.0057084 
931 9.60828e-255 0 0 0 0 0 0 0 0 0.00408256 
932 2.40965e-93 0 0.00463193 2.00953e-129 6.90671e-90 0.000167166 6.82573e-40 2.04451e-157 2.47637e-73 2.11135e-31 
933 4.68768e-61 0 2.21075e-316 0 0.00689662 0 7.39945e-292 0 1.47509e-184 3.12021e-12 
934 4.75255e-167 0 0 0 0 0 0.00220389 0 0 1.33321e-190 
935 0 0 0 4.07163e-173 2.83465e-218 0 0.00440777 2.58427e-306 0 0 
936 4.31824e-06 1.10826e-120 0 0.000862689 4.96756e-214 0 1.51321e-95 0 1.32963e-101 0 
937 1.37799e-254 0 8.79584e-217 8.71997e-05 1.81044e-255 7.63631e-223 2.82537e-172 4.01302e-104 1.58197e-83 0.00162566 
938 5.00981e-246 0 0 0 0 0 0 0 0 0.00612383 
939 2.19071e-127 9.46219e-33 5.40111e-138 2.37482e-11 3.64223e-38 1.6569e-48 2.71604e-90 6.16777e-256 0.00793706 7.13502e-181 
940 5.15918e-08 1.27414e-10 1.444e-17 1.57309e-13 3.94073e-11 0.00102809 5.32309e-09 1.76327e-23 6.86107e-11 6.04381e-13 
941 0.000990163 0.00925422 1.55632e-255 1.68841e-176 4.66586e-168 4.52998e-274 2.0112e-220 6.62201e-261 2.41409e-157 4.53411e-167 
942 0 0 0 0 0.00708067 0 0 0 0 4.77678e-309 
943 2.97287e-19 3.83798e-16 1.37301e-24 0.0114182 1.06729e-54 2.20146e-14 3.39705e-06 6.77558e-50 9.05978e-09 5.24667e-30 
944 8.05644e-11 8.22488e-51 1.81191e-18 1.25919e-25 0.0438482 2.6507e-12 2.36409e-42 1.47354e-16 1.5406e-33 5.90395e-13 
945 0 0 0 1.58515e-188 8.88651e-245 3.91042e-175 0 1.43118e-298 1.41359e-293 0.00612383 
946 0 5.36373e-106 0 0 1.55961e-280 0 3.90309e-09 5.79609e-308 0 0.0134581 
947 1.26144e-119 7.78592e-190 2.72027e-13 3.82836e-198 2.70752e-87 1.4434e-30 9.84815e-159 3.32295e-165 0.00295549 0.00611665 
948 0.0211339 1.17414e-29 8.01907e-73 1.08714e-42 2.58158e-12 2.21322e-64 1.96432e-69 2.31791e-118 7.76053e-186 2.25944e-39 
949 5.07969e-35 1.59516e-28 2.56675e-128 6.1472e-50 0.000761092 5.33109e-85 1.28392e-99 0 0.00420082 5.11493e-11 
950 0 0 0 0 1.10935e-285 0 0 0 0 0.0224541 
951 0 0 0.00346868 0 0 0 0 0 5.07857e-172 0 
952 0 0 0 0.00820084 0 0 6.96293e-208 5.87326e-266 2.11664e-301 0 
953 5.23023e-11 6.22022e-27 2.61685e-14 0.000229216 2.54726e-310 2.40377e-284 4.91245e-132 1.57325e-319 1.36449e-113 2.99821e-112 
954 7.85868e-05 2.74247e-112 4.25435e-26 4.57866e-17 0.00261376 4.83171e-13 3.36172e-11 5.90499e-13 7.38844e-15 2.89887e-21 
955 0 0.00336127 5.66885e-172 1.48097e-95 0 0 2.33455e-62 4.73281e-148 0 2.3634e-249 
956 0 0 0 0 0.00944089 0 7.26808e-290 0 0 2.92465e-201 
957 0.0100316 8.17386e-56 0 1.4121e-133 3.14762e-106 1.4178e-101 7.46252e-120 0 1.92929e-12 1.93188e-145 
958 7.41332e-287 1.82549e-237 1.80067e-201 4.74915e-180 0 9.90735e-176 0.00220389 0 7.51884e-144 7.79377e-289 
959 0 3.22472e-21 0 2.52003e-26 1.49382e-287 0 2.63564e-110 0.0361846 0 0 
960 1.43715e-161 2.24043e-05 2.11936e-140 1.01732e-49 6.98898e-226 6.9221e-109 0.00902858 1.12062e-144 7.38361e-94 7.66575e-152 
961 4.53158e-287 7.58563e-238 4.8613e-202 1.36589e-180 0 1.80103e-175 0.00220389 0 6.88299e-144 9.09064e-289 
962 0 9.93814e-105 0 3.42595e-142 4.65779e-55 0.00730813 1.92002e-191 0 3.1307e-53 4.25391e-321 
963 1.35347e-314 0 0 0 0.0039337 5.7931e-270 0 0 0 0 
964 3.15037e-160 0.00336165 1.34378e-192 2.37497e-140 9.50832e-256 1.58213e-211 2.41964e-201 1.19166e-278 3.77895e-173 4.21649e-185 
965 3.09991e-63 4.04672e-19 2.2293e-225 0.00481693 2.6175e-163 1.1645e-248 3.36522e-120 4.73791e-156 2.3719e-146 1.33451e-107 
966 0.00306681 2.61088e-39 0.000887647 2.20128e-286 1.92688e-311 2.87414e-95 0 0 7.53334e-152 0 
967 6.62928e-242 3.41291e-107 0 1.92456e-300 0.00157348 3.09255e-255 0 0 4.74983e-310 0 
968 0 0 0.00346868 0 0 0 0 0 0 0 
969 4.31022e-233 0.0176584 0 0 0 1.1878e-06 2.01852e-315 0 0 0 
970 0 0 9.62901e-202 0 0 3.41893e-321 0 0 0 0.0122477 
971 0 0 4.25181e-59 3.25017e-41 0 5.36649e-104 2.22952e-190 1.41311e-152 0.00244292 1.19153e-182 
972 0 0 0 0.00820084 0 0 9.5641e-208 7.29823e-266 4.3751e-301 0 
973 5.43522e-260 0 1.7655e-306 0.003785 1.41828e-162 2.37991e-255 5.63223e-118 0 2.28906e-223 3.5767e-139 
974 0 0 0.00346868 0 0 0 0 0 0 0 
975 2.83361e-168 0 1.81666e-229 5.49755e-172 5.01173e-311 1.44878e-240 0.000960141 1.76331e-119 2.68257e-106 0.0052928 
976 9.72885e-247 1.20634e-94 1.00656e-149 0.00126094 0 0 1.54218e-54 4.02611e-267 1.81847e-29 6.8636e-151 
977 1.30173e-246 1.98804e-94 5.76224e-150 0.00126094 0 0 3.49178e-54 7.39238e-267 1.24973e-29 5.0213e-151 
978 0.0154468 3.10819e-114 5.34013e-27 1.61029e-49 4.48975e-133 3.74778e-80 1.38423e-44 3.66865e-203 1.77133e-73 3.04964e-176 
979 0 1.12191e-84 0 6.33272e-166 0 4.68599e-256 0.00220389 0 3.28812e-153 5.41165e-74 
980 0.00348242 0 0 0 9.38725e-323 0 0 0 0 0 
981 0.00696483 0 0 0 4.40881e-229 2.27431e-219 2.64884e-144 0 7.17208e-177 0 
982 5.17151e-172 1.50846e-105 1.27591e-83 0.00179948 5.89449e-275 2.51297e-52 4.16225e-65 1.80469e-161 2.77836e-17 0 
983 0 3.24488e-11 4.48613e-178 1.08367e-101 0 0 6.16807e-70 0.0358413 0 1.23452e-255 
984 1.92686e-321 0 4.9456e-321 1.08255e-216 0 0 2.07612e-247 0 0.0050055 5.38408e-289 
985 1.18082e-321 0 2.76183e-321 4.55536e-217 0 0 1.868e-247 0 0.0050055 6.0854e-289 
986 4.44704e-111 1.52269e-12 4.92684e-169 0.0135143 8.87755e-160 2.0537e-09 7.72765e-20 5.5557e-53 6.62038e-54 2.38533e-135 
987 1.28127e-32 4.72914e-239 3.61328e-164 1.52044e-132 6.23348e-15 3.87725e-153 0.00205045 0 9.98164e-143 6.64957e-17 
988 1.12081e-144 8.64241e-29 6.81721e-145 8.92898e-17 1.38843e-29 0.00754117 3.10803e-144 9.0819e-250 1.0814e-48 2.04646e-20 
989 1.28457e-314 0 0 0 0.00786741 9.72225e-270 0 0 0 0 
990 0.00140136 2.94943e-148 0 0 0.00311949 1.18956e-257 0 0 0 3.91937e-167 
991 2.27453e-314 0 0 0 0.0039337 3.08513e-270 0 0 0 0 
992 1.52243e-65 4.40914e-239 1.23751e-192 6.48316e-51 2.26305e-145 1.81381e-168 0.000216433 0 0.00543388 5.34526e-48 
993 3.80938e-14 3.78718e-15 0.0365271 2.59965e-19 8.36638e-123 4.92862e-20 4.39196e-66 1.28674e-22 2.42785e-48 6.00716e-150 
994 0 0.00672329 0 5.10114e-175 0 0 6.33609e-227 9.59922e-262 1.8172e-280 0 
995 1.46447e-242 4.51719e-107 0 1.16098e-300 0.00157348 3.3384e-255 0 0 2.92663e-310 0 
996 0.0261181 0 8.66143e-285 0 0 0 0 0 0 0 
997 3.97254e-237 0 3.13908e-58 3.32717e-152 1.76761e-220 4.26503e-153 0.0209369 0 2.53114e-133 0 
998 0.00132552 6.35585e-21 3.09144e-119 1.98751e-82 0 1.29334e-77 1.68567e-108 0 3.68794e-276 0.00154661 
999 1.70906e-246 9.09141e-95 5.36493e-150 0.00126094 0 0 1.06047e-54 1.45759e-266 7.74785e-30 3.68032e-151 
1000 0 0 0.00346868 0 0 0 0 0 0 0 
1001 4.49521e-216 1.58087e-136 0 2.6228e-62 8.63411e-157 0.00292309 5.63885e-56 8.39015e-152 1.1134e-183 8.27052e-97 
1002 0.00870604 0 0 0 0 0 5.45707e-278 0 0 0 
1003 7.43391e-96 9.00928e-248 1.41478e-203 0.0028062 1.3122e-45 4.14836e-24 3.70299e-05 5.88463e-238 1.80819e-121 0.00390977 
1004 3.30454e-314 0 0 0 0.0039337 1.10988e-269 0 0 0 0 
1005 2.53682e-215 0.00253055 1.11161e-248 8.00494e-62 1.39389e-156 0.00209202 3.64171e-52 5.73132e-151 2.85676e-115 1.42996e-94 
1006 2.43867e-217 0 3.89276e-30 3.39824e-203 1.23791e-169 6.07923e-290 8.05138e-278 4.16943e-55 0 0.0122049 
1007 1.29655e-75 7.95221e-07 1.96325e-209 1.06843e-18 1.25506e-88 3.46046e-28 1.731e-12 0.00313533 4.72651e-262 4.67987e-34 
1008 0 0 0 0 0 0 0 0.0733492 0 0 
1009 0.0030782 5.444e-106 1.14874e-282 6.41253e-08 3.72256e-24 1.37777e-143 2.57999e-41 0.00166708 3.73061e-67 2.10176e-226 
1010 0 0.00336165 3.56759e-254 0 2.85034e-248 2.33901e-297 9.71589e-219 0 8.10601e-147 3.12078e-258 
1011 1.44682e-101 0 4.09242e-154 3.28389e-48 0 6.73629e-82 0.00881274 0 2.73053e-68 2.98824e-259 
1012 1.5549e-223 0 5.25223e-249 9.36552e-103 0 4.32233e-290 0.00220389 0 9.78639e-140 1.55777e-268 
1013 3.2938e-64 2.91584e-06 0.00142606 1.45113e-22 3.83071e-96 4.99227e-05 6.04932e-53 1.59898e-166 1.73363e-41 0.00342098 
1014 0 0 0 5.50056e-188 5.51245e-245 4.65804e-175 0 4.50441e-298 7.34853e-293 0.00612383 
1015 8.23215e-263 0 0 9.38725e-323 0 0 0.00661166 0 0 6.31162e-243 
1016 0.000994051 0 0 7.41098e-323 2.67567e-219 3.54599e-217 0.00578182 0 7.77621e-175 3.00558e-243 
